digraph Tree {
node [shape=box, fontname="helvetica"] ;
edge [fontname="helvetica"] ;
0 [label="PRECIPITATION_DEPARTING_AIRPORT_RELATIVE <= -0.315\ngini = 0.667\nsamples = 246602\nvalue = [82232, 82299, 82071]"] ;
1 [label="NUMBER_OF_SEATS <= -0.045\ngini = 0.663\nsamples = 167797\nvalue = [48373, 57286, 62138]"] ;
0 -> 1 [labeldistance=2.5, labelangle=45, headlabel="True"] ;
2 [label="TMAX <= -2.382\ngini = 0.648\nsamples = 70676\nvalue = [20866, 18531, 31279]"] ;
1 -> 2 ;
3 [label="MONTH_3 <= 1.528\ngini = 0.612\nsamples = 1599\nvalue = [823, 471, 305]"] ;
2 -> 3 ;
4 [label="AIRLINE_FLIGHTS_MONTH <= -0.128\ngini = 0.597\nsamples = 1355\nvalue = [729, 392, 234]"] ;
3 -> 4 ;
5 [label="AIRLINE_FLIGHTS_MONTH <= -1.568\ngini = 0.617\nsamples = 969\nvalue = [490, 287, 192]"] ;
4 -> 5 ;
6 [label="DISTANCE <= 0.012\ngini = 0.509\nsamples = 109\nvalue = [71, 25, 13]"] ;
5 -> 6 ;
7 [label="DAY_OF_WEEK_7 <= 1.013\ngini = 0.444\nsamples = 94\nvalue = [67, 19, 8]"] ;
6 -> 7 ;
8 [label="PREVIOUS_AIRPORT_Indianapolis Muni/Weir Cook <= 5.107\ngini = 0.397\nsamples = 70\nvalue = [53, 9, 8]"] ;
7 -> 8 ;
9 [label="PREVIOUS_AIRPORT_Adams Field <= 6.753\ngini = 0.368\nsamples = 68\nvalue = [53, 8, 7]"] ;
8 -> 9 ;
10 [label="PREVIOUS_AIRPORT_Tulsa International <= 6.733\ngini = 0.352\nsamples = 67\nvalue = [53, 8, 6]"] ;
9 -> 10 ;
11 [label="PREVIOUS_AIRPORT_Nashville International <= 4.621\ngini = 0.335\nsamples = 66\nvalue = [53, 8, 5]"] ;
10 -> 11 ;
12 [label="PREVIOUS_AIRPORT_Port Columbus International <= 5.177\ngini = 0.316\nsamples = 65\nvalue = [53, 8, 4]"] ;
11 -> 12 ;
13 [label="gini = 0.298\nsamples = 64\nvalue = [53, 7, 4]"] ;
12 -> 13 ;
14 [label="gini = 0.0\nsamples = 1\nvalue = [0, 1, 0]"] ;
12 -> 14 ;
15 [label="gini = 0.0\nsamples = 1\nvalue = [0, 0, 1]"] ;
11 -> 15 ;
16 [label="gini = 0.0\nsamples = 1\nvalue = [0, 0, 1]"] ;
10 -> 16 ;
17 [label="gini = 0.0\nsamples = 1\nvalue = [0, 0, 1]"] ;
9 -> 17 ;
18 [label="AIRPORT_FLIGHTS_MONTH <= -1.446\ngini = 0.5\nsamples = 2\nvalue = [0, 1, 1]"] ;
8 -> 18 ;
19 [label="gini = 0.0\nsamples = 1\nvalue = [0, 1, 0]"] ;
18 -> 19 ;
20 [label="gini = 0.0\nsamples = 1\nvalue = [0, 0, 1]"] ;
18 -> 20 ;
21 [label="SEGMENT_NUMBER <= 0.148\ngini = 0.486\nsamples = 24\nvalue = [14, 10, 0]"] ;
7 -> 21 ;
22 [label="DISTANCE <= -1.046\ngini = 0.375\nsamples = 16\nvalue = [12, 4, 0]"] ;
21 -> 22 ;
23 [label="DEP_TIME_BLK_0700-0759 <= 2.215\ngini = 0.444\nsamples = 3\nvalue = [1, 2, 0]"] ;
22 -> 23 ;
24 [label="TMAX <= -2.937\ngini = 0.5\nsamples = 2\nvalue = [1, 1, 0]"] ;
23 -> 24 ;
25 [label="gini = 0.0\nsamples = 1\nvalue = [1, 0, 0]"] ;
24 -> 25 ;
26 [label="gini = 0.0\nsamples = 1\nvalue = [0, 1, 0]"] ;
24 -> 26 ;
27 [label="gini = 0.0\nsamples = 1\nvalue = [0, 1, 0]"] ;
23 -> 27 ;
28 [label="DISTANCE <= -0.051\ngini = 0.26\nsamples = 13\nvalue = [11, 2, 0]"] ;
22 -> 28 ;
29 [label="DEP_TIME_BLK_0800-0859 <= 1.809\ngini = 0.153\nsamples = 12\nvalue = [11, 1, 0]"] ;
28 -> 29 ;
30 [label="gini = 0.0\nsamples = 11\nvalue = [11, 0, 0]"] ;
29 -> 30 ;
31 [label="gini = 0.0\nsamples = 1\nvalue = [0, 1, 0]"] ;
29 -> 31 ;
32 [label="gini = 0.0\nsamples = 1\nvalue = [0, 1, 0]"] ;
28 -> 32 ;
33 [label="SEGMENT_NUMBER <= 2.196\ngini = 0.375\nsamples = 8\nvalue = [2, 6, 0]"] ;
21 -> 33 ;
34 [label="PREVIOUS_AIRPORT_Wichita Mid-Continent <= 7.481\ngini = 0.245\nsamples = 7\nvalue = [1, 6, 0]"] ;
33 -> 34 ;
35 [label="gini = 0.0\nsamples = 6\nvalue = [0, 6, 0]"] ;
34 -> 35 ;
36 [label="gini = 0.0\nsamples = 1\nvalue = [1, 0, 0]"] ;
34 -> 36 ;
37 [label="gini = 0.0\nsamples = 1\nvalue = [1, 0, 0]"] ;
33 -> 37 ;
38 [label="DISTANCE <= 0.224\ngini = 0.658\nsamples = 15\nvalue = [4, 6, 5]"] ;
6 -> 38 ;
39 [label="CONCURRENT_FLIGHTS <= 0.246\ngini = 0.54\nsamples = 10\nvalue = [1, 6, 3]"] ;
38 -> 39 ;
40 [label="PREVIOUS_AIRPORT_Pensacola Regional <= 7.946\ngini = 0.611\nsamples = 6\nvalue = [1, 2, 3]"] ;
39 -> 40 ;
41 [label="TMAX <= -2.811\ngini = 0.48\nsamples = 5\nvalue = [0, 2, 3]"] ;
40 -> 41 ;
42 [label="CONCURRENT_FLIGHTS <= -0.149\ngini = 0.444\nsamples = 3\nvalue = [0, 2, 1]"] ;
41 -> 42 ;
43 [label="gini = 0.0\nsamples = 2\nvalue = [0, 2, 0]"] ;
42 -> 43 ;
44 [label="gini = 0.0\nsamples = 1\nvalue = [0, 0, 1]"] ;
42 -> 44 ;
45 [label="gini = 0.0\nsamples = 2\nvalue = [0, 0, 2]"] ;
41 -> 45 ;
46 [label="gini = 0.0\nsamples = 1\nvalue = [1, 0, 0]"] ;
40 -> 46 ;
47 [label="gini = 0.0\nsamples = 4\nvalue = [0, 4, 0]"] ;
39 -> 47 ;
48 [label="SEGMENT_NUMBER <= -0.437\ngini = 0.48\nsamples = 5\nvalue = [3, 0, 2]"] ;
38 -> 48 ;
49 [label="gini = 0.0\nsamples = 3\nvalue = [3, 0, 0]"] ;
48 -> 49 ;
50 [label="gini = 0.0\nsamples = 2\nvalue = [0, 0, 2]"] ;
48 -> 50 ;
51 [label="AWND <= -0.037\ngini = 0.626\nsamples = 860\nvalue = [419, 262, 179]"] ;
5 -> 51 ;
52 [label="DISTANCE <= -0.26\ngini = 0.654\nsamples = 165\nvalue = [62, 63, 40]"] ;
51 -> 52 ;
53 [label="PREVIOUS_AIRPORT_Cleveland-Hopkins International <= 5.11\ngini = 0.645\nsamples = 120\nvalue = [36, 54, 30]"] ;
52 -> 53 ;
54 [label="PLANE_AGE <= -1.138\ngini = 0.637\nsamples = 116\nvalue = [36, 54, 26]"] ;
53 -> 54 ;
55 [label="DEP_TIME_BLK_2000-2059 <= 1.674\ngini = 0.435\nsamples = 25\nvalue = [5, 18, 2]"] ;
54 -> 55 ;
56 [label="DISTANCE <= -0.607\ngini = 0.351\nsamples = 22\nvalue = [5, 17, 0]"] ;
55 -> 56 ;
57 [label="gini = 0.0\nsamples = 9\nvalue = [0, 9, 0]"] ;
56 -> 57 ;
58 [label="SEGMENT_NUMBER <= 0.148\ngini = 0.473\nsamples = 13\nvalue = [5, 8, 0]"] ;
56 -> 58 ;
59 [label="gini = 0.346\nsamples = 9\nvalue = [2, 7, 0]"] ;
58 -> 59 ;
60 [label="gini = 0.375\nsamples = 4\nvalue = [3, 1, 0]"] ;
58 -> 60 ;
61 [label="SNOW <= 0.045\ngini = 0.444\nsamples = 3\nvalue = [0, 1, 2]"] ;
55 -> 61 ;
62 [label="gini = 0.0\nsamples = 2\nvalue = [0, 0, 2]"] ;
61 -> 62 ;
63 [label="gini = 0.0\nsamples = 1\nvalue = [0, 1, 0]"] ;
61 -> 63 ;
64 [label="SEGMENT_NUMBER <= 2.196\ngini = 0.658\nsamples = 91\nvalue = [31, 36, 24]"] ;
54 -> 64 ;
65 [label="CONCURRENT_FLIGHTS <= -0.149\ngini = 0.646\nsamples = 85\nvalue = [30, 36, 19]"] ;
64 -> 65 ;
66 [label="NUMBER_OF_SEATS <= -1.478\ngini = 0.587\nsamples = 51\nvalue = [19, 26, 6]"] ;
65 -> 66 ;
67 [label="gini = 0.481\nsamples = 31\nvalue = [7, 21, 3]"] ;
66 -> 67 ;
68 [label="gini = 0.555\nsamples = 20\nvalue = [12, 5, 3]"] ;
66 -> 68 ;
69 [label="SEGMENT_NUMBER <= 1.318\ngini = 0.663\nsamples = 34\nvalue = [11, 10, 13]"] ;
65 -> 69 ;
70 [label="gini = 0.647\nsamples = 27\nvalue = [6, 10, 11]"] ;
69 -> 70 ;
71 [label="gini = 0.408\nsamples = 7\nvalue = [5, 0, 2]"] ;
69 -> 71 ;
72 [label="PREVIOUS_AIRPORT_Dubuque Regional <= 16.278\ngini = 0.278\nsamples = 6\nvalue = [1, 0, 5]"] ;
64 -> 72 ;
73 [label="gini = 0.0\nsamples = 5\nvalue = [0, 0, 5]"] ;
72 -> 73 ;
74 [label="gini = 0.0\nsamples = 1\nvalue = [1, 0, 0]"] ;
72 -> 74 ;
75 [label="gini = 0.0\nsamples = 4\nvalue = [0, 0, 4]"] ;
53 -> 75 ;
76 [label="AIRLINE_AIRPORT_FLIGHTS_MONTH <= -0.589\ngini = 0.577\nsamples = 45\nvalue = [26, 9, 10]"] ;
52 -> 76 ;
77 [label="DEP_TIME_BLK_1200-1259 <= 1.672\ngini = 0.406\nsamples = 28\nvalue = [21, 4, 3]"] ;
76 -> 77 ;
78 [label="PREVIOUS_AIRPORT_LaGuardia <= 2.977\ngini = 0.328\nsamples = 26\nvalue = [21, 3, 2]"] ;
77 -> 78 ;
79 [label="DEP_TIME_BLK_1300-1359 <= 2.034\ngini = 0.278\nsamples = 25\nvalue = [21, 3, 1]"] ;
78 -> 79 ;
80 [label="PLANE_AGE <= -1.138\ngini = 0.226\nsamples = 24\nvalue = [21, 2, 1]"] ;
79 -> 80 ;
81 [label="gini = 0.46\nsamples = 10\nvalue = [7, 2, 1]"] ;
80 -> 81 ;
82 [label="gini = 0.0\nsamples = 14\nvalue = [14, 0, 0]"] ;
80 -> 82 ;
83 [label="gini = 0.0\nsamples = 1\nvalue = [0, 1, 0]"] ;
79 -> 83 ;
84 [label="gini = 0.0\nsamples = 1\nvalue = [0, 0, 1]"] ;
78 -> 84 ;
85 [label="DISTANCE <= -0.157\ngini = 0.5\nsamples = 2\nvalue = [0, 1, 1]"] ;
77 -> 85 ;
86 [label="gini = 0.0\nsamples = 1\nvalue = [0, 0, 1]"] ;
85 -> 86 ;
87 [label="gini = 0.0\nsamples = 1\nvalue = [0, 1, 0]"] ;
85 -> 87 ;
88 [label="PLANE_AGE <= 0.688\ngini = 0.657\nsamples = 17\nvalue = [5, 5, 7]"] ;
76 -> 88 ;
89 [label="PREVIOUS_AIRPORT_Sarasota/Bradenton Airport <= 9.345\ngini = 0.469\nsamples = 8\nvalue = [0, 3, 5]"] ;
88 -> 89 ;
90 [label="PREVIOUS_AIRPORT_San Antonio International <= 5.415\ngini = 0.408\nsamples = 7\nvalue = [0, 2, 5]"] ;
89 -> 90 ;
91 [label="PREVIOUS_AIRPORT_Ronald Reagan Washington National <= 3.914\ngini = 0.278\nsamples = 6\nvalue = [0, 1, 5]"] ;
90 -> 91 ;
92 [label="gini = 0.0\nsamples = 5\nvalue = [0, 0, 5]"] ;
91 -> 92 ;
93 [label="gini = 0.0\nsamples = 1\nvalue = [0, 1, 0]"] ;
91 -> 93 ;
94 [label="gini = 0.0\nsamples = 1\nvalue = [0, 1, 0]"] ;
90 -> 94 ;
95 [label="gini = 0.0\nsamples = 1\nvalue = [0, 1, 0]"] ;
89 -> 95 ;
96 [label="DEP_TIME_BLK_0900-0959 <= 1.946\ngini = 0.593\nsamples = 9\nvalue = [5, 2, 2]"] ;
88 -> 96 ;
97 [label="CONCURRENT_FLIGHTS <= -0.044\ngini = 0.408\nsamples = 7\nvalue = [5, 2, 0]"] ;
96 -> 97 ;
98 [label="gini = 0.0\nsamples = 5\nvalue = [5, 0, 0]"] ;
97 -> 98 ;
99 [label="gini = 0.0\nsamples = 2\nvalue = [0, 2, 0]"] ;
97 -> 99 ;
100 [label="gini = 0.0\nsamples = 2\nvalue = [0, 0, 2]"] ;
96 -> 100 ;
101 [label="AWND <= 0.836\ngini = 0.614\nsamples = 695\nvalue = [357, 199, 139]"] ;
51 -> 101 ;
102 [label="PREVIOUS_AIRPORT_Eppley Airfield <= 6.803\ngini = 0.572\nsamples = 295\nvalue = [171, 75, 49]"] ;
101 -> 102 ;
103 [label="PREVIOUS_AIRPORT_James M Cox/Dayton International <= 8.056\ngini = 0.565\nsamples = 291\nvalue = [171, 74, 46]"] ;
102 -> 103 ;
104 [label="PREVIOUS_AIRPORT_Northwest Arkansas Regional <= 6.427\ngini = 0.559\nsamples = 287\nvalue = [171, 71, 45]"] ;
103 -> 104 ;
105 [label="PREVIOUS_AIRPORT_El Paso International <= 7.559\ngini = 0.555\nsamples = 285\nvalue = [171, 71, 43]"] ;
104 -> 105 ;
106 [label="SEGMENT_NUMBER <= 0.733\ngini = 0.551\nsamples = 283\nvalue = [171, 71, 41]"] ;
105 -> 106 ;
107 [label="gini = 0.578\nsamples = 222\nvalue = [126, 61, 35]"] ;
106 -> 107 ;
108 [label="gini = 0.419\nsamples = 61\nvalue = [45, 10, 6]"] ;
106 -> 108 ;
109 [label="gini = 0.0\nsamples = 2\nvalue = [0, 0, 2]"] ;
105 -> 109 ;
110 [label="gini = 0.0\nsamples = 2\nvalue = [0, 0, 2]"] ;
104 -> 110 ;
111 [label="CONCURRENT_FLIGHTS <= 0.194\ngini = 0.375\nsamples = 4\nvalue = [0, 3, 1]"] ;
103 -> 111 ;
112 [label="gini = 0.0\nsamples = 1\nvalue = [0, 0, 1]"] ;
111 -> 112 ;
113 [label="gini = 0.0\nsamples = 3\nvalue = [0, 3, 0]"] ;
111 -> 113 ;
114 [label="DEP_TIME_BLK_1600-1659 <= 1.719\ngini = 0.375\nsamples = 4\nvalue = [0, 1, 3]"] ;
102 -> 114 ;
115 [label="gini = 0.0\nsamples = 3\nvalue = [0, 0, 3]"] ;
114 -> 115 ;
116 [label="gini = 0.0\nsamples = 1\nvalue = [0, 1, 0]"] ;
114 -> 116 ;
117 [label="PLANE_AGE <= -0.094\ngini = 0.637\nsamples = 400\nvalue = [186, 124, 90]"] ;
101 -> 117 ;
118 [label="DEP_TIME_BLK_2200-2259 <= 2.115\ngini = 0.596\nsamples = 161\nvalue = [88, 42, 31]"] ;
117 -> 118 ;
119 [label="CONCURRENT_FLIGHTS <= 0.695\ngini = 0.57\nsamples = 148\nvalue = [86, 38, 24]"] ;
118 -> 119 ;
120 [label="DEP_TIME_BLK_1700-1759 <= 2.018\ngini = 0.585\nsamples = 138\nvalue = [77, 38, 23]"] ;
119 -> 120 ;
121 [label="PREVIOUS_AIRPORT_Richmond International <= 5.848\ngini = 0.597\nsamples = 132\nvalue = [71, 38, 23]"] ;
120 -> 121 ;
122 [label="gini = 0.594\nsamples = 130\nvalue = [71, 36, 23]"] ;
121 -> 122 ;
123 [label="gini = 0.0\nsamples = 2\nvalue = [0, 2, 0]"] ;
121 -> 123 ;
124 [label="gini = 0.0\nsamples = 6\nvalue = [6, 0, 0]"] ;
120 -> 124 ;
125 [label="PREVIOUS_AIRPORT_Adams Field <= 6.753\ngini = 0.18\nsamples = 10\nvalue = [9, 0, 1]"] ;
119 -> 125 ;
126 [label="gini = 0.0\nsamples = 9\nvalue = [9, 0, 0]"] ;
125 -> 126 ;
127 [label="gini = 0.0\nsamples = 1\nvalue = [0, 0, 1]"] ;
125 -> 127 ;
128 [label="DISTANCE <= -0.774\ngini = 0.592\nsamples = 13\nvalue = [2, 4, 7]"] ;
118 -> 128 ;
129 [label="PREVIOUS_AIRPORT_Tulsa International <= 6.733\ngini = 0.375\nsamples = 8\nvalue = [0, 2, 6]"] ;
128 -> 129 ;
130 [label="PREVIOUS_AIRPORT_Port Columbus International <= 5.177\ngini = 0.245\nsamples = 7\nvalue = [0, 1, 6]"] ;
129 -> 130 ;
131 [label="gini = 0.0\nsamples = 6\nvalue = [0, 0, 6]"] ;
130 -> 131 ;
132 [label="gini = 0.0\nsamples = 1\nvalue = [0, 1, 0]"] ;
130 -> 132 ;
133 [label="gini = 0.0\nsamples = 1\nvalue = [0, 1, 0]"] ;
129 -> 133 ;
134 [label="AIRLINE_AIRPORT_FLIGHTS_MONTH <= -0.644\ngini = 0.64\nsamples = 5\nvalue = [2, 2, 1]"] ;
128 -> 134 ;
135 [label="AWND <= 1.679\ngini = 0.5\nsamples = 4\nvalue = [2, 2, 0]"] ;
134 -> 135 ;
136 [label="gini = 0.0\nsamples = 1\nvalue = [0, 1, 0]"] ;
135 -> 136 ;
137 [label="gini = 0.444\nsamples = 3\nvalue = [2, 1, 0]"] ;
135 -> 137 ;
138 [label="gini = 0.0\nsamples = 1\nvalue = [0, 0, 1]"] ;
134 -> 138 ;
139 [label="CONCURRENT_FLIGHTS <= -2.206\ngini = 0.653\nsamples = 239\nvalue = [98, 82, 59]"] ;
117 -> 139 ;
140 [label="gini = 0.0\nsamples = 6\nvalue = [6, 0, 0]"] ;
139 -> 140 ;
141 [label="DEP_TIME_BLK_1200-1259 <= 1.672\ngini = 0.656\nsamples = 233\nvalue = [92, 82, 59]"] ;
139 -> 141 ;
142 [label="DAY_OF_WEEK_2 <= 1.025\ngini = 0.656\nsamples = 211\nvalue = [78, 80, 53]"] ;
141 -> 142 ;
143 [label="DEP_TIME_BLK_2200-2259 <= 2.115\ngini = 0.629\nsamples = 129\nvalue = [57, 49, 23]"] ;
142 -> 143 ;
144 [label="gini = 0.637\nsamples = 120\nvalue = [49, 48, 23]"] ;
143 -> 144 ;
145 [label="gini = 0.198\nsamples = 9\nvalue = [8, 1, 0]"] ;
143 -> 145 ;
146 [label="DISTANCE <= -1.277\ngini = 0.658\nsamples = 82\nvalue = [21, 31, 30]"] ;
142 -> 146 ;
147 [label="gini = 0.0\nsamples = 4\nvalue = [4, 0, 0]"] ;
146 -> 147 ;
148 [label="gini = 0.647\nsamples = 78\nvalue = [17, 31, 30]"] ;
146 -> 148 ;
149 [label="PLANE_AGE <= 0.297\ngini = 0.512\nsamples = 22\nvalue = [14, 2, 6]"] ;
141 -> 149 ;
150 [label="DAY_OF_WEEK_7 <= 1.013\ngini = 0.571\nsamples = 7\nvalue = [2, 1, 4]"] ;
149 -> 150 ;
151 [label="gini = 0.625\nsamples = 4\nvalue = [2, 1, 1]"] ;
150 -> 151 ;
152 [label="gini = 0.0\nsamples = 3\nvalue = [0, 0, 3]"] ;
150 -> 152 ;
153 [label="PREVIOUS_AIRPORT_LaGuardia <= 2.977\ngini = 0.338\nsamples = 15\nvalue = [12, 1, 2]"] ;
149 -> 153 ;
154 [label="gini = 0.245\nsamples = 14\nvalue = [12, 0, 2]"] ;
153 -> 154 ;
155 [label="gini = 0.0\nsamples = 1\nvalue = [0, 1, 0]"] ;
153 -> 155 ;
156 [label="PREVIOUS_AIRPORT_Phoenix Sky Harbor International <= 4.68\ngini = 0.531\nsamples = 386\nvalue = [239, 105, 42]"] ;
4 -> 156 ;
157 [label="PREVIOUS_AIRPORT_Nashville International <= 4.621\ngini = 0.527\nsamples = 382\nvalue = [239, 101, 42]"] ;
156 -> 157 ;
158 [label="NUMBER_OF_SEATS <= -1.174\ngini = 0.517\nsamples = 363\nvalue = [232, 90, 41]"] ;
157 -> 158 ;
159 [label="DEP_TIME_BLK_0900-0959 <= 1.946\ngini = 0.445\nsamples = 209\nvalue = [148, 46, 15]"] ;
158 -> 159 ;
160 [label="DAY_OF_WEEK_7 <= 1.013\ngini = 0.414\nsamples = 193\nvalue = [142, 39, 12]"] ;
159 -> 160 ;
161 [label="PREVIOUS_AIRPORT_Greenbrier Valley <= 28.468\ngini = 0.348\nsamples = 137\nvalue = [108, 23, 6]"] ;
160 -> 161 ;
162 [label="DISTANCE <= -0.499\ngini = 0.339\nsamples = 136\nvalue = [108, 23, 5]"] ;
161 -> 162 ;
163 [label="DEP_TIME_BLK_0800-0859 <= 1.809\ngini = 0.234\nsamples = 76\nvalue = [66, 8, 2]"] ;
162 -> 163 ;
164 [label="gini = 0.18\nsamples = 71\nvalue = [64, 6, 1]"] ;
163 -> 164 ;
165 [label="gini = 0.64\nsamples = 5\nvalue = [2, 2, 1]"] ;
163 -> 165 ;
166 [label="DISTANCE <= -0.312\ngini = 0.445\nsamples = 60\nvalue = [42, 15, 3]"] ;
162 -> 166 ;
167 [label="gini = 0.5\nsamples = 20\nvalue = [10, 10, 0]"] ;
166 -> 167 ;
168 [label="gini = 0.339\nsamples = 40\nvalue = [32, 5, 3]"] ;
166 -> 168 ;
169 [label="gini = 0.0\nsamples = 1\nvalue = [0, 0, 1]"] ;
161 -> 169 ;
170 [label="DISTANCE <= -0.013\ngini = 0.538\nsamples = 56\nvalue = [34, 16, 6]"] ;
160 -> 170 ;
171 [label="SEGMENT_NUMBER <= 0.733\ngini = 0.564\nsamples = 51\nvalue = [29, 16, 6]"] ;
170 -> 171 ;
172 [label="DISTANCE <= -1.253\ngini = 0.615\nsamples = 32\nvalue = [15, 12, 5]"] ;
171 -> 172 ;
173 [label="gini = 0.444\nsamples = 3\nvalue = [0, 1, 2]"] ;
172 -> 173 ;
174 [label="gini = 0.578\nsamples = 29\nvalue = [15, 11, 3]"] ;
172 -> 174 ;
175 [label="PREVIOUS_AIRPORT_Charlottesville Albemarle <= 11.115\ngini = 0.41\nsamples = 19\nvalue = [14, 4, 1]"] ;
171 -> 175 ;
176 [label="gini = 0.346\nsamples = 18\nvalue = [14, 4, 0]"] ;
175 -> 176 ;
177 [label="gini = 0.0\nsamples = 1\nvalue = [0, 0, 1]"] ;
175 -> 177 ;
178 [label="gini = 0.0\nsamples = 5\nvalue = [5, 0, 0]"] ;
170 -> 178 ;
179 [label="DISTANCE <= -0.759\ngini = 0.633\nsamples = 16\nvalue = [6, 7, 3]"] ;
159 -> 179 ;
180 [label="gini = 0.0\nsamples = 3\nvalue = [3, 0, 0]"] ;
179 -> 180 ;
181 [label="PREVIOUS_AIRPORT_Harrisburg International <= 9.503\ngini = 0.604\nsamples = 13\nvalue = [3, 7, 3]"] ;
179 -> 181 ;
182 [label="SEGMENT_NUMBER <= -0.437\ngini = 0.512\nsamples = 11\nvalue = [3, 7, 1]"] ;
181 -> 182 ;
183 [label="DAY_OF_WEEK_1 <= 0.977\ngini = 0.37\nsamples = 9\nvalue = [1, 7, 1]"] ;
182 -> 183 ;
184 [label="gini = 0.219\nsamples = 8\nvalue = [0, 7, 1]"] ;
183 -> 184 ;
185 [label="gini = 0.0\nsamples = 1\nvalue = [1, 0, 0]"] ;
183 -> 185 ;
186 [label="gini = 0.0\nsamples = 2\nvalue = [2, 0, 0]"] ;
182 -> 186 ;
187 [label="gini = 0.0\nsamples = 2\nvalue = [0, 0, 2]"] ;
181 -> 187 ;
188 [label="CONCURRENT_FLIGHTS <= -2.628\ngini = 0.592\nsamples = 154\nvalue = [84, 44, 26]"] ;
158 -> 188 ;
189 [label="gini = 0.0\nsamples = 2\nvalue = [0, 0, 2]"] ;
188 -> 189 ;
190 [label="AWND <= 0.554\ngini = 0.586\nsamples = 152\nvalue = [84, 44, 24]"] ;
188 -> 190 ;
191 [label="AIRLINE_AIRPORT_FLIGHTS_MONTH <= -0.555\ngini = 0.634\nsamples = 74\nvalue = [34, 25, 15]"] ;
190 -> 191 ;
192 [label="DEP_TIME_BLK_1200-1259 <= 1.672\ngini = 0.647\nsamples = 67\nvalue = [28, 24, 15]"] ;
191 -> 192 ;
193 [label="SEGMENT_NUMBER <= 0.733\ngini = 0.626\nsamples = 60\nvalue = [28, 21, 11]"] ;
192 -> 193 ;
194 [label="gini = 0.586\nsamples = 50\nvalue = [27, 16, 7]"] ;
193 -> 194 ;
195 [label="gini = 0.58\nsamples = 10\nvalue = [1, 5, 4]"] ;
193 -> 195 ;
196 [label="DISTANCE <= -0.473\ngini = 0.49\nsamples = 7\nvalue = [0, 3, 4]"] ;
192 -> 196 ;
197 [label="gini = 0.375\nsamples = 4\nvalue = [0, 3, 1]"] ;
196 -> 197 ;
198 [label="gini = 0.0\nsamples = 3\nvalue = [0, 0, 3]"] ;
196 -> 198 ;
199 [label="DEP_TIME_BLK_1300-1359 <= 2.034\ngini = 0.245\nsamples = 7\nvalue = [6, 1, 0]"] ;
191 -> 199 ;
200 [label="gini = 0.0\nsamples = 6\nvalue = [6, 0, 0]"] ;
199 -> 200 ;
201 [label="gini = 0.0\nsamples = 1\nvalue = [0, 1, 0]"] ;
199 -> 201 ;
202 [label="DEP_TIME_BLK_1400-1459 <= 1.717\ngini = 0.516\nsamples = 78\nvalue = [50, 19, 9]"] ;
190 -> 202 ;
203 [label="DEP_TIME_BLK_1500-1559 <= 1.756\ngini = 0.486\nsamples = 73\nvalue = [49, 17, 7]"] ;
202 -> 203 ;
204 [label="PREVIOUS_AIRPORT_Kansas City International <= 5.108\ngini = 0.466\nsamples = 71\nvalue = [49, 16, 6]"] ;
203 -> 204 ;
205 [label="gini = 0.453\nsamples = 70\nvalue = [49, 16, 5]"] ;
204 -> 205 ;
206 [label="gini = 0.0\nsamples = 1\nvalue = [0, 0, 1]"] ;
204 -> 206 ;
207 [label="PREVIOUS_AIRPORT_Joe Foss Field <= 11.348\ngini = 0.5\nsamples = 2\nvalue = [0, 1, 1]"] ;
203 -> 207 ;
208 [label="gini = 0.0\nsamples = 1\nvalue = [0, 1, 0]"] ;
207 -> 208 ;
209 [label="gini = 0.0\nsamples = 1\nvalue = [0, 0, 1]"] ;
207 -> 209 ;
210 [label="AIRLINE_AIRPORT_FLIGHTS_MONTH <= -1.174\ngini = 0.64\nsamples = 5\nvalue = [1, 2, 2]"] ;
202 -> 210 ;
211 [label="gini = 0.0\nsamples = 2\nvalue = [0, 2, 0]"] ;
210 -> 211 ;
212 [label="DAY_OF_WEEK_7 <= 1.013\ngini = 0.444\nsamples = 3\nvalue = [1, 0, 2]"] ;
210 -> 212 ;
213 [label="gini = 0.0\nsamples = 2\nvalue = [0, 0, 2]"] ;
212 -> 213 ;
214 [label="gini = 0.0\nsamples = 1\nvalue = [1, 0, 0]"] ;
212 -> 214 ;
215 [label="CONCURRENT_FLIGHTS <= -0.017\ngini = 0.526\nsamples = 19\nvalue = [7, 11, 1]"] ;
157 -> 215 ;
216 [label="DEP_TIME_BLK_0900-0959 <= 1.946\ngini = 0.278\nsamples = 12\nvalue = [2, 10, 0]"] ;
215 -> 216 ;
217 [label="DEP_TIME_BLK_0700-0759 <= 2.215\ngini = 0.165\nsamples = 11\nvalue = [1, 10, 0]"] ;
216 -> 217 ;
218 [label="gini = 0.0\nsamples = 10\nvalue = [0, 10, 0]"] ;
217 -> 218 ;
219 [label="gini = 0.0\nsamples = 1\nvalue = [1, 0, 0]"] ;
217 -> 219 ;
220 [label="gini = 0.0\nsamples = 1\nvalue = [1, 0, 0]"] ;
216 -> 220 ;
221 [label="DISTANCE <= -0.06\ngini = 0.449\nsamples = 7\nvalue = [5, 1, 1]"] ;
215 -> 221 ;
222 [label="gini = 0.0\nsamples = 5\nvalue = [5, 0, 0]"] ;
221 -> 222 ;
223 [label="MONTH_1 <= 1.621\ngini = 0.5\nsamples = 2\nvalue = [0, 1, 1]"] ;
221 -> 223 ;
224 [label="gini = 0.0\nsamples = 1\nvalue = [0, 1, 0]"] ;
223 -> 224 ;
225 [label="gini = 0.0\nsamples = 1\nvalue = [0, 0, 1]"] ;
223 -> 225 ;
226 [label="gini = 0.0\nsamples = 4\nvalue = [0, 4, 0]"] ;
156 -> 226 ;
227 [label="DISTANCE <= 0.568\ngini = 0.662\nsamples = 244\nvalue = [94, 79, 71]"] ;
3 -> 227 ;
228 [label="DISTANCE <= -0.579\ngini = 0.665\nsamples = 228\nvalue = [83, 74, 71]"] ;
227 -> 228 ;
229 [label="DEP_TIME_BLK_1600-1659 <= 1.719\ngini = 0.643\nsamples = 112\nvalue = [50, 36, 26]"] ;
228 -> 229 ;
230 [label="DISTANCE <= -0.622\ngini = 0.638\nsamples = 108\nvalue = [49, 36, 23]"] ;
229 -> 230 ;
231 [label="PLANE_AGE <= 0.557\ngini = 0.643\nsamples = 105\nvalue = [46, 36, 23]"] ;
230 -> 231 ;
232 [label="DISTANCE <= -0.645\ngini = 0.631\nsamples = 81\nvalue = [39, 24, 18]"] ;
231 -> 232 ;
233 [label="DISTANCE <= -0.86\ngini = 0.627\nsamples = 79\nvalue = [39, 22, 18]"] ;
232 -> 233 ;
234 [label="PLANE_AGE <= -1.138\ngini = 0.611\nsamples = 63\nvalue = [32, 20, 11]"] ;
233 -> 234 ;
235 [label="CARRIER_NAME_Comair Inc. <= 11.312\ngini = 0.375\nsamples = 4\nvalue = [1, 3, 0]"] ;
234 -> 235 ;
236 [label="gini = 0.0\nsamples = 3\nvalue = [0, 3, 0]"] ;
235 -> 236 ;
237 [label="gini = 0.0\nsamples = 1\nvalue = [1, 0, 0]"] ;
235 -> 237 ;
238 [label="DISTANCE <= -0.917\ngini = 0.606\nsamples = 59\nvalue = [31, 17, 11]"] ;
234 -> 238 ;
239 [label="gini = 0.629\nsamples = 51\nvalue = [24, 17, 10]"] ;
238 -> 239 ;
240 [label="gini = 0.219\nsamples = 8\nvalue = [7, 0, 1]"] ;
238 -> 240 ;
241 [label="SEGMENT_NUMBER <= 1.026\ngini = 0.602\nsamples = 16\nvalue = [7, 2, 7]"] ;
233 -> 241 ;
242 [label="CARRIER_NAME_Midwest Airline, Inc. <= 3.669\ngini = 0.592\nsamples = 13\nvalue = [7, 2, 4]"] ;
241 -> 242 ;
243 [label="gini = 0.529\nsamples = 11\nvalue = [7, 2, 2]"] ;
242 -> 243 ;
244 [label="gini = 0.0\nsamples = 2\nvalue = [0, 0, 2]"] ;
242 -> 244 ;
245 [label="gini = 0.0\nsamples = 3\nvalue = [0, 0, 3]"] ;
241 -> 245 ;
246 [label="gini = 0.0\nsamples = 2\nvalue = [0, 2, 0]"] ;
232 -> 246 ;
247 [label="AIRLINE_FLIGHTS_MONTH <= 0.499\ngini = 0.622\nsamples = 24\nvalue = [7, 12, 5]"] ;
231 -> 247 ;
248 [label="DISTANCE <= -1.253\ngini = 0.571\nsamples = 21\nvalue = [6, 12, 3]"] ;
247 -> 248 ;
249 [label="CARRIER_NAME_SkyWest Airlines Inc. <= 1.342\ngini = 0.444\nsamples = 3\nvalue = [1, 0, 2]"] ;
248 -> 249 ;
250 [label="gini = 0.0\nsamples = 1\nvalue = [1, 0, 0]"] ;
249 -> 250 ;
251 [label="gini = 0.0\nsamples = 2\nvalue = [0, 0, 2]"] ;
249 -> 251 ;
252 [label="DEP_TIME_BLK_2100-2159 <= 2.084\ngini = 0.475\nsamples = 18\nvalue = [5, 12, 1]"] ;
248 -> 252 ;
253 [label="CONCURRENT_FLIGHTS <= -0.096\ngini = 0.398\nsamples = 16\nvalue = [3, 12, 1]"] ;
252 -> 253 ;
254 [label="gini = 0.0\nsamples = 9\nvalue = [0, 9, 0]"] ;
253 -> 254 ;
255 [label="gini = 0.612\nsamples = 7\nvalue = [3, 3, 1]"] ;
253 -> 255 ;
256 [label="gini = 0.0\nsamples = 2\nvalue = [2, 0, 0]"] ;
252 -> 256 ;
257 [label="DAY_OF_WEEK_2 <= 1.025\ngini = 0.444\nsamples = 3\nvalue = [1, 0, 2]"] ;
247 -> 257 ;
258 [label="gini = 0.0\nsamples = 1\nvalue = [1, 0, 0]"] ;
257 -> 258 ;
259 [label="gini = 0.0\nsamples = 2\nvalue = [0, 0, 2]"] ;
257 -> 259 ;
260 [label="gini = 0.0\nsamples = 3\nvalue = [3, 0, 0]"] ;
230 -> 260 ;
261 [label="PREVIOUS_AIRPORT_Kent County <= 7.149\ngini = 0.375\nsamples = 4\nvalue = [1, 0, 3]"] ;
229 -> 261 ;
262 [label="gini = 0.0\nsamples = 3\nvalue = [0, 0, 3]"] ;
261 -> 262 ;
263 [label="gini = 0.0\nsamples = 1\nvalue = [1, 0, 0]"] ;
261 -> 263 ;
264 [label="DAY_OF_WEEK_1 <= 0.977\ngini = 0.661\nsamples = 116\nvalue = [33, 38, 45]"] ;
228 -> 264 ;
265 [label="PLANE_AGE <= -1.398\ngini = 0.605\nsamples = 56\nvalue = [12, 14, 30]"] ;
264 -> 265 ;
266 [label="PREVIOUS_AIRPORT_John F. Kennedy International <= 5.896\ngini = 0.444\nsamples = 6\nvalue = [4, 0, 2]"] ;
265 -> 266 ;
267 [label="DEP_TIME_BLK_1800-1859 <= 1.587\ngini = 0.32\nsamples = 5\nvalue = [4, 0, 1]"] ;
266 -> 267 ;
268 [label="gini = 0.0\nsamples = 4\nvalue = [4, 0, 0]"] ;
267 -> 268 ;
269 [label="gini = 0.0\nsamples = 1\nvalue = [0, 0, 1]"] ;
267 -> 269 ;
270 [label="gini = 0.0\nsamples = 1\nvalue = [0, 0, 1]"] ;
266 -> 270 ;
271 [label="PLANE_AGE <= -1.138\ngini = 0.582\nsamples = 50\nvalue = [8, 14, 28]"] ;
265 -> 271 ;
272 [label="gini = 0.0\nsamples = 7\nvalue = [0, 0, 7]"] ;
271 -> 272 ;
273 [label="CONCURRENT_FLIGHTS <= -1.204\ngini = 0.621\nsamples = 43\nvalue = [8, 14, 21]"] ;
271 -> 273 ;
274 [label="gini = 0.0\nsamples = 5\nvalue = [0, 0, 5]"] ;
273 -> 274 ;
275 [label="PLANE_AGE <= 0.883\ngini = 0.643\nsamples = 38\nvalue = [8, 14, 16]"] ;
273 -> 275 ;
276 [label="NUMBER_OF_SEATS <= -1.478\ngini = 0.645\nsamples = 31\nvalue = [8, 9, 14]"] ;
275 -> 276 ;
277 [label="SEGMENT_NUMBER <= 0.733\ngini = 0.496\nsamples = 11\nvalue = [5, 0, 6]"] ;
276 -> 277 ;
278 [label="gini = 0.469\nsamples = 8\nvalue = [5, 0, 3]"] ;
277 -> 278 ;
279 [label="gini = 0.0\nsamples = 3\nvalue = [0, 0, 3]"] ;
277 -> 279 ;
280 [label="DEP_TIME_BLK_1400-1459 <= 1.717\ngini = 0.615\nsamples = 20\nvalue = [3, 9, 8]"] ;
276 -> 280 ;
281 [label="gini = 0.594\nsamples = 16\nvalue = [2, 6, 8]"] ;
280 -> 281 ;
282 [label="gini = 0.375\nsamples = 4\nvalue = [1, 3, 0]"] ;
280 -> 282 ;
283 [label="NUMBER_OF_SEATS <= -0.212\ngini = 0.408\nsamples = 7\nvalue = [0, 5, 2]"] ;
275 -> 283 ;
284 [label="AVG_MONTHLY_PASS_AIRLINE <= 0.471\ngini = 0.278\nsamples = 6\nvalue = [0, 5, 1]"] ;
283 -> 284 ;
285 [label="gini = 0.0\nsamples = 5\nvalue = [0, 5, 0]"] ;
284 -> 285 ;
286 [label="gini = 0.0\nsamples = 1\nvalue = [0, 0, 1]"] ;
284 -> 286 ;
287 [label="gini = 0.0\nsamples = 1\nvalue = [0, 0, 1]"] ;
283 -> 287 ;
288 [label="FLT_ATTENDANTS_PER_PASS <= -1.108\ngini = 0.655\nsamples = 60\nvalue = [21, 24, 15]"] ;
264 -> 288 ;
289 [label="CONCURRENT_FLIGHTS <= -0.123\ngini = 0.408\nsamples = 7\nvalue = [2, 0, 5]"] ;
288 -> 289 ;
290 [label="gini = 0.0\nsamples = 4\nvalue = [0, 0, 4]"] ;
289 -> 290 ;
291 [label="SEGMENT_NUMBER <= -0.437\ngini = 0.444\nsamples = 3\nvalue = [2, 0, 1]"] ;
289 -> 291 ;
292 [label="gini = 0.0\nsamples = 1\nvalue = [0, 0, 1]"] ;
291 -> 292 ;
293 [label="gini = 0.0\nsamples = 2\nvalue = [2, 0, 0]"] ;
291 -> 293 ;
294 [label="NUMBER_OF_SEATS <= -0.163\ngini = 0.631\nsamples = 53\nvalue = [19, 24, 10]"] ;
288 -> 294 ;
295 [label="DISTANCE <= -0.505\ngini = 0.622\nsamples = 48\nvalue = [14, 24, 10]"] ;
294 -> 295 ;
296 [label="PREVIOUS_AIRPORT_Austin Straubel International <= 10.792\ngini = 0.32\nsamples = 5\nvalue = [1, 0, 4]"] ;
295 -> 296 ;
297 [label="gini = 0.0\nsamples = 4\nvalue = [0, 0, 4]"] ;
296 -> 297 ;
298 [label="gini = 0.0\nsamples = 1\nvalue = [1, 0, 0]"] ;
296 -> 298 ;
299 [label="PLANE_AGE <= 0.166\ngini = 0.578\nsamples = 43\nvalue = [13, 24, 6]"] ;
295 -> 299 ;
300 [label="CONCURRENT_FLIGHTS <= -0.65\ngini = 0.541\nsamples = 23\nvalue = [11, 11, 1]"] ;
299 -> 300 ;
301 [label="DISTANCE <= -0.157\ngini = 0.512\nsamples = 11\nvalue = [7, 3, 1]"] ;
300 -> 301 ;
302 [label="gini = 0.0\nsamples = 4\nvalue = [4, 0, 0]"] ;
301 -> 302 ;
303 [label="gini = 0.612\nsamples = 7\nvalue = [3, 3, 1]"] ;
301 -> 303 ;
304 [label="DISTANCE <= -0.065\ngini = 0.444\nsamples = 12\nvalue = [4, 8, 0]"] ;
300 -> 304 ;
305 [label="gini = 0.0\nsamples = 4\nvalue = [0, 4, 0]"] ;
304 -> 305 ;
306 [label="gini = 0.5\nsamples = 8\nvalue = [4, 4, 0]"] ;
304 -> 306 ;
307 [label="SEGMENT_NUMBER <= -1.022\ngini = 0.505\nsamples = 20\nvalue = [2, 13, 5]"] ;
299 -> 307 ;
308 [label="gini = 0.0\nsamples = 1\nvalue = [1, 0, 0]"] ;
307 -> 308 ;
309 [label="PREVIOUS_AIRPORT_Benedum <= 26.917\ngini = 0.46\nsamples = 19\nvalue = [1, 13, 5]"] ;
307 -> 309 ;
310 [label="gini = 0.401\nsamples = 18\nvalue = [0, 13, 5]"] ;
309 -> 310 ;
311 [label="gini = 0.0\nsamples = 1\nvalue = [1, 0, 0]"] ;
309 -> 311 ;
312 [label="gini = 0.0\nsamples = 5\nvalue = [5, 0, 0]"] ;
294 -> 312 ;
313 [label="PREVIOUS_AIRPORT_NONE <= 1.022\ngini = 0.43\nsamples = 16\nvalue = [11, 5, 0]"] ;
227 -> 313 ;
314 [label="PREVIOUS_AIRPORT_Port Columbus International <= 5.177\ngini = 0.337\nsamples = 14\nvalue = [11, 3, 0]"] ;
313 -> 314 ;
315 [label="PREVIOUS_AIRPORT_El Paso International <= 7.559\ngini = 0.26\nsamples = 13\nvalue = [11, 2, 0]"] ;
314 -> 315 ;
316 [label="DEP_TIME_BLK_1500-1559 <= 1.756\ngini = 0.153\nsamples = 12\nvalue = [11, 1, 0]"] ;
315 -> 316 ;
317 [label="gini = 0.0\nsamples = 10\nvalue = [10, 0, 0]"] ;
316 -> 317 ;
318 [label="CONCURRENT_FLIGHTS <= -0.044\ngini = 0.5\nsamples = 2\nvalue = [1, 1, 0]"] ;
316 -> 318 ;
319 [label="gini = 0.0\nsamples = 1\nvalue = [0, 1, 0]"] ;
318 -> 319 ;
320 [label="gini = 0.0\nsamples = 1\nvalue = [1, 0, 0]"] ;
318 -> 320 ;
321 [label="gini = 0.0\nsamples = 1\nvalue = [0, 1, 0]"] ;
315 -> 321 ;
322 [label="gini = 0.0\nsamples = 1\nvalue = [0, 1, 0]"] ;
314 -> 322 ;
323 [label="gini = 0.0\nsamples = 2\nvalue = [0, 2, 0]"] ;
313 -> 323 ;
324 [label="SEGMENT_NUMBER <= -0.437\ngini = 0.646\nsamples = 69077\nvalue = [20043, 18060, 30974]"] ;
2 -> 324 ;
325 [label="DEP_TIME_BLK_2200-2259 <= 2.115\ngini = 0.626\nsamples = 25030\nvalue = [6234, 6334, 12462]"] ;
324 -> 325 ;
326 [label="DEP_TIME_BLK_0800-0859 <= 1.809\ngini = 0.624\nsamples = 24739\nvalue = [6043, 6296, 12400]"] ;
325 -> 326 ;
327 [label="AIRPORT_FLIGHTS_MONTH <= 0.422\ngini = 0.633\nsamples = 20112\nvalue = [5156, 5234, 9722]"] ;
326 -> 327 ;
328 [label="FLT_ATTENDANTS_PER_PASS <= 1.707\ngini = 0.639\nsamples = 15017\nvalue = [4130, 3865, 7022]"] ;
327 -> 328 ;
329 [label="CARRIER_NAME_Midwest Airline, Inc. <= 3.669\ngini = 0.646\nsamples = 10571\nvalue = [3176, 2653, 4742]"] ;
328 -> 329 ;
330 [label="CARRIER_NAME_American Airlines Inc. <= 0.568\ngini = 0.649\nsamples = 9996\nvalue = [3059, 2564, 4373]"] ;
329 -> 330 ;
331 [label="DEP_TIME_BLK_2000-2059 <= 1.674\ngini = 0.644\nsamples = 8603\nvalue = [2643, 2080, 3880]"] ;
330 -> 331 ;
332 [label="DEP_TIME_BLK_2100-2159 <= 2.084\ngini = 0.643\nsamples = 8499\nvalue = [2576, 2062, 3861]"] ;
331 -> 332 ;
333 [label="DEP_TIME_BLK_1900-1959 <= 1.814\ngini = 0.642\nsamples = 8391\nvalue = [2515, 2037, 3839]"] ;
332 -> 333 ;
334 [label="gini = 0.641\nsamples = 8247\nvalue = [2442, 1999, 3806]"] ;
333 -> 334 ;
335 [label="gini = 0.621\nsamples = 144\nvalue = [73, 38, 33]"] ;
333 -> 335 ;
336 [label="AIRLINE_AIRPORT_FLIGHTS_MONTH <= -0.575\ngini = 0.586\nsamples = 108\nvalue = [61, 25, 22]"] ;
332 -> 336 ;
337 [label="gini = 0.338\nsamples = 49\nvalue = [39, 2, 8]"] ;
336 -> 337 ;
338 [label="gini = 0.653\nsamples = 59\nvalue = [22, 23, 14]"] ;
336 -> 338 ;
339 [label="NUMBER_OF_SEATS <= -0.349\ngini = 0.522\nsamples = 104\nvalue = [67, 18, 19]"] ;
331 -> 339 ;
340 [label="DAY_OF_WEEK_2 <= 1.025\ngini = 0.463\nsamples = 87\nvalue = [61, 12, 14]"] ;
339 -> 340 ;
341 [label="gini = 0.397\nsamples = 74\nvalue = [56, 10, 8]"] ;
340 -> 341 ;
342 [label="gini = 0.615\nsamples = 13\nvalue = [5, 2, 6]"] ;
340 -> 342 ;
343 [label="DISTANCE <= 0.064\ngini = 0.664\nsamples = 17\nvalue = [6, 6, 5]"] ;
339 -> 343 ;
344 [label="gini = 0.562\nsamples = 11\nvalue = [1, 6, 4]"] ;
343 -> 344 ;
345 [label="gini = 0.278\nsamples = 6\nvalue = [5, 0, 1]"] ;
343 -> 345 ;
346 [label="DEP_TIME_BLK_1600-1659 <= 1.719\ngini = 0.665\nsamples = 1393\nvalue = [416, 484, 493]"] ;
330 -> 346 ;
347 [label="DEP_TIME_BLK_1800-1859 <= 1.587\ngini = 0.664\nsamples = 1352\nvalue = [394, 469, 489]"] ;
346 -> 347 ;
348 [label="DAY_OF_WEEK_1 <= 0.977\ngini = 0.663\nsamples = 1305\nvalue = [369, 454, 482]"] ;
347 -> 348 ;
349 [label="gini = 0.66\nsamples = 1100\nvalue = [299, 373, 428]"] ;
348 -> 349 ;
350 [label="gini = 0.658\nsamples = 205\nvalue = [70, 81, 54]"] ;
348 -> 350 ;
351 [label="AIRPORT_FLIGHTS_MONTH <= -1.788\ngini = 0.593\nsamples = 47\nvalue = [25, 15, 7]"] ;
347 -> 351 ;
352 [label="gini = 0.32\nsamples = 5\nvalue = [0, 4, 1]"] ;
351 -> 352 ;
353 [label="gini = 0.557\nsamples = 42\nvalue = [25, 11, 6]"] ;
351 -> 353 ;
354 [label="AWND <= 0.93\ngini = 0.569\nsamples = 41\nvalue = [22, 15, 4]"] ;
346 -> 354 ;
355 [label="TMAX <= 1.479\ngini = 0.516\nsamples = 31\nvalue = [20, 7, 4]"] ;
354 -> 355 ;
356 [label="gini = 0.476\nsamples = 29\nvalue = [20, 5, 4]"] ;
355 -> 356 ;
357 [label="gini = 0.0\nsamples = 2\nvalue = [0, 2, 0]"] ;
355 -> 357 ;
358 [label="MONTH_9 <= 1.593\ngini = 0.32\nsamples = 10\nvalue = [2, 8, 0]"] ;
354 -> 358 ;
359 [label="gini = 0.198\nsamples = 9\nvalue = [1, 8, 0]"] ;
358 -> 359 ;
360 [label="gini = 0.0\nsamples = 1\nvalue = [1, 0, 0]"] ;
358 -> 360 ;
361 [label="DAY_OF_WEEK_5 <= 0.96\ngini = 0.523\nsamples = 575\nvalue = [117, 89, 369]"] ;
329 -> 361 ;
362 [label="PREVIOUS_AIRPORT_Atlanta Municipal <= 4.427\ngini = 0.492\nsamples = 474\nvalue = [89, 66, 319]"] ;
361 -> 362 ;
363 [label="DEP_TIME_BLK_2100-2159 <= 2.084\ngini = 0.482\nsamples = 460\nvalue = [88, 58, 314]"] ;
362 -> 363 ;
364 [label="DEP_TIME_BLK_1900-1959 <= 1.814\ngini = 0.475\nsamples = 454\nvalue = [83, 58, 313]"] ;
363 -> 364 ;
365 [label="gini = 0.468\nsamples = 448\nvalue = [79, 57, 312]"] ;
364 -> 365 ;
366 [label="gini = 0.5\nsamples = 6\nvalue = [4, 1, 1]"] ;
364 -> 366 ;
367 [label="PREVIOUS_AIRPORT_Burlington International <= 12.793\ngini = 0.278\nsamples = 6\nvalue = [5, 0, 1]"] ;
363 -> 367 ;
368 [label="gini = 0.0\nsamples = 5\nvalue = [5, 0, 0]"] ;
367 -> 368 ;
369 [label="gini = 0.0\nsamples = 1\nvalue = [0, 0, 1]"] ;
367 -> 369 ;
370 [label="AIRLINE_AIRPORT_FLIGHTS_MONTH <= -1.108\ngini = 0.541\nsamples = 14\nvalue = [1, 8, 5]"] ;
362 -> 370 ;
371 [label="TMAX <= 0.873\ngini = 0.34\nsamples = 10\nvalue = [1, 8, 1]"] ;
370 -> 371 ;
372 [label="gini = 0.0\nsamples = 8\nvalue = [0, 8, 0]"] ;
371 -> 372 ;
373 [label="gini = 0.5\nsamples = 2\nvalue = [1, 0, 1]"] ;
371 -> 373 ;
374 [label="gini = 0.0\nsamples = 4\nvalue = [0, 0, 4]"] ;
370 -> 374 ;
375 [label="AIRLINE_AIRPORT_FLIGHTS_MONTH <= -1.25\ngini = 0.626\nsamples = 101\nvalue = [28, 23, 50]"] ;
361 -> 375 ;
376 [label="MONTH_12 <= 1.507\ngini = 0.521\nsamples = 13\nvalue = [8, 4, 1]"] ;
375 -> 376 ;
377 [label="AWND <= 1.336\ngini = 0.486\nsamples = 12\nvalue = [8, 3, 1]"] ;
376 -> 377 ;
378 [label="gini = 0.37\nsamples = 9\nvalue = [7, 1, 1]"] ;
377 -> 378 ;
379 [label="gini = 0.444\nsamples = 3\nvalue = [1, 2, 0]"] ;
377 -> 379 ;
380 [label="gini = 0.0\nsamples = 1\nvalue = [0, 1, 0]"] ;
376 -> 380 ;
381 [label="AWND <= -0.226\ngini = 0.592\nsamples = 88\nvalue = [20, 19, 49]"] ;
375 -> 381 ;
382 [label="MONTH_6 <= 1.353\ngini = 0.652\nsamples = 52\nvalue = [17, 13, 22]"] ;
381 -> 382 ;
383 [label="gini = 0.643\nsamples = 48\nvalue = [13, 13, 22]"] ;
382 -> 383 ;
384 [label="gini = 0.0\nsamples = 4\nvalue = [4, 0, 0]"] ;
382 -> 384 ;
385 [label="CONCURRENT_FLIGHTS <= 1.011\ngini = 0.403\nsamples = 36\nvalue = [3, 6, 27]"] ;
381 -> 385 ;
386 [label="gini = 0.337\nsamples = 34\nvalue = [1, 6, 27]"] ;
385 -> 386 ;
387 [label="gini = 0.0\nsamples = 2\nvalue = [2, 0, 0]"] ;
385 -> 387 ;
388 [label="DEP_TIME_BLK_0700-0759 <= 2.215\ngini = 0.617\nsamples = 4446\nvalue = [954, 1212, 2280]"] ;
328 -> 388 ;
389 [label="DEP_TIME_BLK_1500-1559 <= 1.756\ngini = 0.63\nsamples = 3749\nvalue = [861, 1065, 1823]"] ;
388 -> 389 ;
390 [label="TMAX <= -1.575\ngini = 0.625\nsamples = 3568\nvalue = [800, 998, 1770]"] ;
389 -> 390 ;
391 [label="TMAX <= -2.079\ngini = 0.666\nsamples = 291\nvalue = [90, 100, 101]"] ;
390 -> 391 ;
392 [label="CONCURRENT_FLIGHTS <= -1.257\ngini = 0.638\nsamples = 88\nvalue = [29, 19, 40]"] ;
391 -> 392 ;
393 [label="gini = 0.0\nsamples = 7\nvalue = [0, 0, 7]"] ;
392 -> 393 ;
394 [label="gini = 0.651\nsamples = 81\nvalue = [29, 19, 33]"] ;
392 -> 394 ;
395 [label="DISTANCE <= 0.181\ngini = 0.66\nsamples = 203\nvalue = [61, 81, 61]"] ;
391 -> 395 ;
396 [label="gini = 0.647\nsamples = 167\nvalue = [42, 74, 51]"] ;
395 -> 396 ;
397 [label="gini = 0.606\nsamples = 36\nvalue = [19, 7, 10]"] ;
395 -> 397 ;
398 [label="PREVIOUS_AIRPORT_NONE <= 1.022\ngini = 0.619\nsamples = 3277\nvalue = [710, 898, 1669]"] ;
390 -> 398 ;
399 [label="AWND <= -1.443\ngini = 0.601\nsamples = 2349\nvalue = [461, 624, 1264]"] ;
398 -> 399 ;
400 [label="gini = 0.631\nsamples = 122\nvalue = [48, 22, 52]"] ;
399 -> 400 ;
401 [label="gini = 0.596\nsamples = 2227\nvalue = [413, 602, 1212]"] ;
399 -> 401 ;
402 [label="TMAX <= 1.1\ngini = 0.65\nsamples = 928\nvalue = [249, 274, 405]"] ;
398 -> 402 ;
403 [label="gini = 0.658\nsamples = 762\nvalue = [217, 233, 312]"] ;
402 -> 403 ;
404 [label="gini = 0.588\nsamples = 166\nvalue = [32, 41, 93]"] ;
402 -> 404 ;
405 [label="DISTANCE <= -0.049\ngini = 0.664\nsamples = 181\nvalue = [61, 67, 53]"] ;
389 -> 405 ;
406 [label="CONCURRENT_FLIGHTS <= -1.784\ngini = 0.653\nsamples = 108\nvalue = [46, 29, 33]"] ;
405 -> 406 ;
407 [label="PREVIOUS_AIRPORT_NONE <= 1.022\ngini = 0.444\nsamples = 9\nvalue = [0, 3, 6]"] ;
406 -> 407 ;
408 [label="gini = 0.0\nsamples = 5\nvalue = [0, 0, 5]"] ;
407 -> 408 ;
409 [label="gini = 0.375\nsamples = 4\nvalue = [0, 3, 1]"] ;
407 -> 409 ;
410 [label="PREVIOUS_AIRPORT_NONE <= 1.022\ngini = 0.641\nsamples = 99\nvalue = [46, 26, 27]"] ;
406 -> 410 ;
411 [label="gini = 0.649\nsamples = 57\nvalue = [23, 21, 13]"] ;
410 -> 411 ;
412 [label="gini = 0.575\nsamples = 42\nvalue = [23, 5, 14]"] ;
410 -> 412 ;
413 [label="AWND <= 0.554\ngini = 0.612\nsamples = 73\nvalue = [15, 38, 20]"] ;
405 -> 413 ;
414 [label="CONCURRENT_FLIGHTS <= -1.52\ngini = 0.55\nsamples = 49\nvalue = [9, 30, 10]"] ;
413 -> 414 ;
415 [label="gini = 0.625\nsamples = 8\nvalue = [2, 2, 4]"] ;
414 -> 415 ;
416 [label="gini = 0.483\nsamples = 41\nvalue = [7, 28, 6]"] ;
414 -> 416 ;
417 [label="PREVIOUS_AIRPORT_Adams Field <= 6.753\ngini = 0.653\nsamples = 24\nvalue = [6, 8, 10]"] ;
413 -> 417 ;
418 [label="gini = 0.628\nsamples = 22\nvalue = [4, 8, 10]"] ;
417 -> 418 ;
419 [label="gini = 0.0\nsamples = 2\nvalue = [2, 0, 0]"] ;
417 -> 419 ;
420 [label="PREVIOUS_AIRPORT_Joplin Municipal <= 15.374\ngini = 0.508\nsamples = 697\nvalue = [93, 147, 457]"] ;
388 -> 420 ;
421 [label="DAY_OF_WEEK_5 <= 0.96\ngini = 0.505\nsamples = 694\nvalue = [90, 147, 457]"] ;
420 -> 421 ;
422 [label="PLANE_AGE <= -1.268\ngini = 0.486\nsamples = 564\nvalue = [75, 106, 383]"] ;
421 -> 422 ;
423 [label="AIRLINE_AIRPORT_FLIGHTS_MONTH <= -0.581\ngini = 0.558\nsamples = 140\nvalue = [20, 37, 83]"] ;
422 -> 423 ;
424 [label="gini = 0.634\nsamples = 39\nvalue = [8, 18, 13]"] ;
423 -> 424 ;
425 [label="gini = 0.47\nsamples = 101\nvalue = [12, 19, 70]"] ;
423 -> 425 ;
426 [label="CONCURRENT_FLIGHTS <= -0.993\ngini = 0.456\nsamples = 424\nvalue = [55, 69, 300]"] ;
422 -> 426 ;
427 [label="gini = 0.611\nsamples = 6\nvalue = [3, 2, 1]"] ;
426 -> 427 ;
428 [label="gini = 0.447\nsamples = 418\nvalue = [52, 67, 299]"] ;
426 -> 428 ;
429 [label="NUMBER_OF_SEATS <= -1.478\ngini = 0.563\nsamples = 130\nvalue = [15, 41, 74]"] ;
421 -> 429 ;
430 [label="TMAX <= -0.389\ngini = 0.471\nsamples = 63\nvalue = [5, 15, 43]"] ;
429 -> 430 ;
431 [label="gini = 0.203\nsamples = 27\nvalue = [1, 2, 24]"] ;
430 -> 431 ;
432 [label="gini = 0.579\nsamples = 36\nvalue = [4, 13, 19]"] ;
430 -> 432 ;
433 [label="MONTH_11 <= 1.627\ngini = 0.613\nsamples = 67\nvalue = [10, 26, 31]"] ;
429 -> 433 ;
434 [label="gini = 0.603\nsamples = 62\nvalue = [9, 22, 31]"] ;
433 -> 434 ;
435 [label="gini = 0.32\nsamples = 5\nvalue = [1, 4, 0]"] ;
433 -> 435 ;
436 [label="gini = 0.0\nsamples = 3\nvalue = [3, 0, 0]"] ;
420 -> 436 ;
437 [label="DEP_TIME_BLK_2300-2359 <= 7.152\ngini = 0.606\nsamples = 5095\nvalue = [1026, 1369, 2700]"] ;
327 -> 437 ;
438 [label="AIRPORT_FLIGHTS_MONTH <= 1.117\ngini = 0.604\nsamples = 5056\nvalue = [991, 1367, 2698]"] ;
437 -> 438 ;
439 [label="TMAX <= -0.969\ngini = 0.569\nsamples = 2148\nvalue = [362, 531, 1255]"] ;
438 -> 439 ;
440 [label="AIRLINE_AIRPORT_FLIGHTS_MONTH <= -0.862\ngini = 0.647\nsamples = 271\nvalue = [63, 91, 117]"] ;
439 -> 440 ;
441 [label="CONCURRENT_FLIGHTS <= -0.729\ngini = 0.608\nsamples = 123\nvalue = [32, 26, 65]"] ;
440 -> 441 ;
442 [label="PREVIOUS_AIRPORT_Central Illinois Regional <= 10.73\ngini = 0.355\nsamples = 19\nvalue = [2, 2, 15]"] ;
441 -> 442 ;
443 [label="gini = 0.29\nsamples = 18\nvalue = [2, 1, 15]"] ;
442 -> 443 ;
444 [label="gini = 0.0\nsamples = 1\nvalue = [0, 1, 0]"] ;
442 -> 444 ;
445 [label="AVG_MONTHLY_PASS_AIRLINE <= -0.459\ngini = 0.632\nsamples = 104\nvalue = [30, 24, 50]"] ;
441 -> 445 ;
446 [label="gini = 0.625\nsamples = 98\nvalue = [25, 24, 49]"] ;
445 -> 446 ;
447 [label="gini = 0.278\nsamples = 6\nvalue = [5, 0, 1]"] ;
445 -> 447 ;
448 [label="DISTANCE <= -1.145\ngini = 0.64\nsamples = 148\nvalue = [31, 65, 52]"] ;
440 -> 448 ;
449 [label="PLANE_AGE <= 0.492\ngini = 0.198\nsamples = 9\nvalue = [1, 8, 0]"] ;
448 -> 449 ;
450 [label="gini = 0.0\nsamples = 7\nvalue = [0, 7, 0]"] ;
449 -> 450 ;
451 [label="gini = 0.5\nsamples = 2\nvalue = [1, 1, 0]"] ;
449 -> 451 ;
452 [label="DISTANCE <= -0.22\ngini = 0.645\nsamples = 139\nvalue = [30, 57, 52]"] ;
448 -> 452 ;
453 [label="gini = 0.635\nsamples = 84\nvalue = [18, 27, 39]"] ;
452 -> 453 ;
454 [label="gini = 0.599\nsamples = 55\nvalue = [12, 30, 13]"] ;
452 -> 454 ;
455 [label="AIRLINE_AIRPORT_FLIGHTS_MONTH <= -0.862\ngini = 0.552\nsamples = 1877\nvalue = [299, 440, 1138]"] ;
439 -> 455 ;
456 [label="DAY_OF_WEEK_1 <= 0.977\ngini = 0.591\nsamples = 776\nvalue = [148, 198, 430]"] ;
455 -> 456 ;
457 [label="DISTANCE <= -0.215\ngini = 0.57\nsamples = 620\nvalue = [99, 161, 360]"] ;
456 -> 457 ;
458 [label="gini = 0.582\nsamples = 458\nvalue = [66, 139, 253]"] ;
457 -> 458 ;
459 [label="gini = 0.504\nsamples = 162\nvalue = [33, 22, 107]"] ;
457 -> 459 ;
460 [label="AWND <= -0.069\ngini = 0.644\nsamples = 156\nvalue = [49, 37, 70]"] ;
456 -> 460 ;
461 [label="gini = 0.614\nsamples = 125\nvalue = [28, 32, 65]"] ;
460 -> 461 ;
462 [label="gini = 0.489\nsamples = 31\nvalue = [21, 5, 5]"] ;
460 -> 462 ;
463 [label="DEP_TIME_BLK_1400-1459 <= 1.717\ngini = 0.519\nsamples = 1101\nvalue = [151, 242, 708]"] ;
455 -> 463 ;
464 [label="DISTANCE <= 0.322\ngini = 0.509\nsamples = 1057\nvalue = [141, 224, 692]"] ;
463 -> 464 ;
465 [label="gini = 0.504\nsamples = 1045\nvalue = [139, 216, 690]"] ;
464 -> 465 ;
466 [label="gini = 0.5\nsamples = 12\nvalue = [2, 8, 2]"] ;
464 -> 466 ;
467 [label="PREVIOUS_AIRPORT_Harrisburg International <= 9.503\ngini = 0.649\nsamples = 44\nvalue = [10, 18, 16]"] ;
463 -> 467 ;
468 [label="gini = 0.634\nsamples = 36\nvalue = [7, 13, 16]"] ;
467 -> 468 ;
469 [label="gini = 0.469\nsamples = 8\nvalue = [3, 5, 0]"] ;
467 -> 469 ;
470 [label="DEP_TIME_BLK_1700-1759 <= 2.018\ngini = 0.624\nsamples = 2908\nvalue = [629, 836, 1443]"] ;
438 -> 470 ;
471 [label="DEP_TIME_BLK_1500-1559 <= 1.756\ngini = 0.621\nsamples = 2854\nvalue = [602, 820, 1432]"] ;
470 -> 471 ;
472 [label="DEP_TIME_BLK_1600-1659 <= 1.719\ngini = 0.618\nsamples = 2796\nvalue = [573, 807, 1416]"] ;
471 -> 472 ;
473 [label="DEP_TIME_BLK_1800-1859 <= 1.587\ngini = 0.614\nsamples = 2703\nvalue = [540, 773, 1390]"] ;
472 -> 473 ;
474 [label="gini = 0.61\nsamples = 2632\nvalue = [513, 749, 1370]"] ;
473 -> 474 ;
475 [label="gini = 0.662\nsamples = 71\nvalue = [27, 24, 20]"] ;
473 -> 475 ;
476 [label="AIRLINE_AIRPORT_FLIGHTS_MONTH <= -0.907\ngini = 0.662\nsamples = 93\nvalue = [33, 34, 26]"] ;
472 -> 476 ;
477 [label="gini = 0.278\nsamples = 6\nvalue = [5, 1, 0]"] ;
476 -> 477 ;
478 [label="gini = 0.663\nsamples = 87\nvalue = [28, 33, 26]"] ;
476 -> 478 ;
479 [label="AWND <= -0.6\ngini = 0.624\nsamples = 58\nvalue = [29, 13, 16]"] ;
471 -> 479 ;
480 [label="SEGMENT_NUMBER <= -1.022\ngini = 0.666\nsamples = 32\nvalue = [11, 11, 10]"] ;
479 -> 480 ;
481 [label="gini = 0.56\nsamples = 15\nvalue = [9, 3, 3]"] ;
480 -> 481 ;
482 [label="gini = 0.595\nsamples = 17\nvalue = [2, 8, 7]"] ;
480 -> 482 ;
483 [label="DAY_OF_WEEK_7 <= 1.013\ngini = 0.462\nsamples = 26\nvalue = [18, 2, 6]"] ;
479 -> 483 ;
484 [label="gini = 0.355\nsamples = 23\nvalue = [18, 1, 4]"] ;
483 -> 484 ;
485 [label="gini = 0.444\nsamples = 3\nvalue = [0, 1, 2]"] ;
483 -> 485 ;
486 [label="PLANE_AGE <= -0.094\ngini = 0.621\nsamples = 54\nvalue = [27, 16, 11]"] ;
470 -> 486 ;
487 [label="AWND <= 1.429\ngini = 0.364\nsamples = 18\nvalue = [14, 3, 1]"] ;
486 -> 487 ;
488 [label="DISTANCE <= -1.216\ngini = 0.219\nsamples = 16\nvalue = [14, 2, 0]"] ;
487 -> 488 ;
489 [label="gini = 0.0\nsamples = 1\nvalue = [0, 1, 0]"] ;
488 -> 489 ;
490 [label="gini = 0.124\nsamples = 15\nvalue = [14, 1, 0]"] ;
488 -> 490 ;
491 [label="AWND <= 1.992\ngini = 0.5\nsamples = 2\nvalue = [0, 1, 1]"] ;
487 -> 491 ;
492 [label="gini = 0.0\nsamples = 1\nvalue = [0, 0, 1]"] ;
491 -> 492 ;
493 [label="gini = 0.0\nsamples = 1\nvalue = [0, 1, 0]"] ;
491 -> 493 ;
494 [label="TMAX <= 0.621\ngini = 0.662\nsamples = 36\nvalue = [13, 13, 10]"] ;
486 -> 494 ;
495 [label="CARRIER_NAME_Endeavor Air Inc. <= 2.483\ngini = 0.494\nsamples = 9\nvalue = [1, 2, 6]"] ;
494 -> 495 ;
496 [label="gini = 0.0\nsamples = 1\nvalue = [1, 0, 0]"] ;
495 -> 496 ;
497 [label="gini = 0.375\nsamples = 8\nvalue = [0, 2, 6]"] ;
495 -> 497 ;
498 [label="CONCURRENT_FLIGHTS <= 0.431\ngini = 0.615\nsamples = 27\nvalue = [12, 11, 4]"] ;
494 -> 498 ;
499 [label="gini = 0.594\nsamples = 21\nvalue = [7, 11, 3]"] ;
498 -> 499 ;
500 [label="gini = 0.278\nsamples = 6\nvalue = [5, 0, 1]"] ;
498 -> 500 ;
501 [label="AIRLINE_FLIGHTS_MONTH <= -1.475\ngini = 0.189\nsamples = 39\nvalue = [35, 2, 2]"] ;
437 -> 501 ;
502 [label="AIRPORT_FLIGHTS_MONTH <= 0.644\ngini = 0.56\nsamples = 10\nvalue = [6, 2, 2]"] ;
501 -> 502 ;
503 [label="gini = 0.0\nsamples = 1\nvalue = [0, 1, 0]"] ;
502 -> 503 ;
504 [label="PLANE_AGE <= 0.557\ngini = 0.494\nsamples = 9\nvalue = [6, 1, 2]"] ;
502 -> 504 ;
505 [label="MONTH_6 <= 1.353\ngini = 0.375\nsamples = 8\nvalue = [6, 0, 2]"] ;
504 -> 505 ;
506 [label="DAY_OF_WEEK_5 <= 0.96\ngini = 0.245\nsamples = 7\nvalue = [6, 0, 1]"] ;
505 -> 506 ;
507 [label="gini = 0.0\nsamples = 6\nvalue = [6, 0, 0]"] ;
506 -> 507 ;
508 [label="gini = 0.0\nsamples = 1\nvalue = [0, 0, 1]"] ;
506 -> 508 ;
509 [label="gini = 0.0\nsamples = 1\nvalue = [0, 0, 1]"] ;
505 -> 509 ;
510 [label="gini = 0.0\nsamples = 1\nvalue = [0, 1, 0]"] ;
504 -> 510 ;
511 [label="gini = 0.0\nsamples = 29\nvalue = [29, 0, 0]"] ;
501 -> 511 ;
512 [label="AIRPORT_FLIGHTS_MONTH <= 0.422\ngini = 0.576\nsamples = 4627\nvalue = [887, 1062, 2678]"] ;
326 -> 512 ;
513 [label="FLT_ATTENDANTS_PER_PASS <= 1.707\ngini = 0.59\nsamples = 3473\nvalue = [721, 813, 1939]"] ;
512 -> 513 ;
514 [label="CARRIER_NAME_Midwest Airline, Inc. <= 3.669\ngini = 0.611\nsamples = 1799\nvalue = [458, 398, 943]"] ;
513 -> 514 ;
515 [label="AIRPORT_FLIGHTS_MONTH <= -0.782\ngini = 0.618\nsamples = 1703\nvalue = [446, 385, 872]"] ;
514 -> 515 ;
516 [label="DISTANCE <= -0.275\ngini = 0.613\nsamples = 661\nvalue = [140, 178, 343]"] ;
515 -> 516 ;
517 [label="TMAX <= -0.818\ngini = 0.572\nsamples = 403\nvalue = [68, 101, 234]"] ;
516 -> 517 ;
518 [label="FLT_ATTENDANTS_PER_PASS <= -0.08\ngini = 0.626\nsamples = 120\nvalue = [22, 42, 56]"] ;
517 -> 518 ;
519 [label="gini = 0.64\nsamples = 105\nvalue = [21, 42, 42]"] ;
518 -> 519 ;
520 [label="gini = 0.124\nsamples = 15\nvalue = [1, 0, 14]"] ;
518 -> 520 ;
521 [label="PREVIOUS_AIRPORT_Pittsburgh International <= 5.602\ngini = 0.535\nsamples = 283\nvalue = [46, 59, 178]"] ;
517 -> 521 ;
522 [label="gini = 0.529\nsamples = 280\nvalue = [46, 56, 178]"] ;
521 -> 522 ;
523 [label="gini = 0.0\nsamples = 3\nvalue = [0, 3, 0]"] ;
521 -> 523 ;
524 [label="AIRLINE_AIRPORT_FLIGHTS_MONTH <= -1.155\ngini = 0.655\nsamples = 258\nvalue = [72, 77, 109]"] ;
516 -> 524 ;
525 [label="TMAX <= -1.877\ngini = 0.516\nsamples = 42\nvalue = [5, 10, 27]"] ;
524 -> 525 ;
526 [label="gini = 0.0\nsamples = 2\nvalue = [0, 2, 0]"] ;
525 -> 526 ;
527 [label="gini = 0.489\nsamples = 40\nvalue = [5, 8, 27]"] ;
525 -> 527 ;
528 [label="AWND <= 2.772\ngini = 0.663\nsamples = 216\nvalue = [67, 67, 82]"] ;
524 -> 528 ;
529 [label="gini = 0.662\nsamples = 212\nvalue = [67, 63, 82]"] ;
528 -> 529 ;
530 [label="gini = 0.0\nsamples = 4\nvalue = [0, 4, 0]"] ;
528 -> 530 ;
531 [label="SNWD <= 1.807\ngini = 0.617\nsamples = 1042\nvalue = [306, 207, 529]"] ;
515 -> 531 ;
532 [label="PREVIOUS_AIRPORT_Shreveport Regional <= 8.633\ngini = 0.612\nsamples = 1014\nvalue = [292, 198, 524]"] ;
531 -> 532 ;
533 [label="AIRLINE_AIRPORT_FLIGHTS_MONTH <= -0.414\ngini = 0.611\nsamples = 1010\nvalue = [288, 198, 524]"] ;
532 -> 533 ;
534 [label="gini = 0.602\nsamples = 906\nvalue = [256, 167, 483]"] ;
533 -> 534 ;
535 [label="gini = 0.661\nsamples = 104\nvalue = [32, 31, 41]"] ;
533 -> 535 ;
536 [label="gini = 0.0\nsamples = 4\nvalue = [4, 0, 0]"] ;
532 -> 536 ;
537 [label="AIRLINE_AIRPORT_FLIGHTS_MONTH <= -0.598\ngini = 0.615\nsamples = 28\nvalue = [14, 9, 5]"] ;
531 -> 537 ;
538 [label="AIRLINE_AIRPORT_FLIGHTS_MONTH <= -1.15\ngini = 0.298\nsamples = 11\nvalue = [9, 2, 0]"] ;
537 -> 538 ;
539 [label="gini = 0.0\nsamples = 2\nvalue = [0, 2, 0]"] ;
538 -> 539 ;
540 [label="gini = 0.0\nsamples = 9\nvalue = [9, 0, 0]"] ;
538 -> 540 ;
541 [label="NUMBER_OF_SEATS <= -1.468\ngini = 0.657\nsamples = 17\nvalue = [5, 7, 5]"] ;
537 -> 541 ;
542 [label="gini = 0.444\nsamples = 6\nvalue = [2, 0, 4]"] ;
541 -> 542 ;
543 [label="gini = 0.512\nsamples = 11\nvalue = [3, 7, 1]"] ;
541 -> 543 ;
544 [label="PREVIOUS_AIRPORT_Wichita Mid-Continent <= 7.481\ngini = 0.419\nsamples = 96\nvalue = [12, 13, 71]"] ;
514 -> 544 ;
545 [label="AIRPORT_FLIGHTS_MONTH <= 0.1\ngini = 0.389\nsamples = 93\nvalue = [10, 12, 71]"] ;
544 -> 545 ;
546 [label="MONTH_3 <= 1.528\ngini = 0.472\nsamples = 62\nvalue = [10, 9, 43]"] ;
545 -> 546 ;
547 [label="TMAX <= -1.903\ngini = 0.53\nsamples = 52\nvalue = [10, 9, 33]"] ;
546 -> 547 ;
548 [label="gini = 0.0\nsamples = 6\nvalue = [0, 0, 6]"] ;
547 -> 548 ;
549 [label="gini = 0.57\nsamples = 46\nvalue = [10, 9, 27]"] ;
547 -> 549 ;
550 [label="gini = 0.0\nsamples = 10\nvalue = [0, 0, 10]"] ;
546 -> 550 ;
551 [label="TMAX <= -0.994\ngini = 0.175\nsamples = 31\nvalue = [0, 3, 28]"] ;
545 -> 551 ;
552 [label="gini = 0.0\nsamples = 1\nvalue = [0, 1, 0]"] ;
551 -> 552 ;
553 [label="PREVIOUS_AIRPORT_NONE <= 1.022\ngini = 0.124\nsamples = 30\nvalue = [0, 2, 28]"] ;
551 -> 553 ;
554 [label="gini = 0.0\nsamples = 23\nvalue = [0, 0, 23]"] ;
553 -> 554 ;
555 [label="gini = 0.408\nsamples = 7\nvalue = [0, 2, 5]"] ;
553 -> 555 ;
556 [label="AIRLINE_AIRPORT_FLIGHTS_MONTH <= -1.118\ngini = 0.444\nsamples = 3\nvalue = [2, 1, 0]"] ;
544 -> 556 ;
557 [label="gini = 0.0\nsamples = 2\nvalue = [2, 0, 0]"] ;
556 -> 557 ;
558 [label="gini = 0.0\nsamples = 1\nvalue = [0, 1, 0]"] ;
556 -> 558 ;
559 [label="SEGMENT_NUMBER <= -1.022\ngini = 0.56\nsamples = 1674\nvalue = [263, 415, 996]"] ;
513 -> 559 ;
560 [label="DISTANCE <= -1.098\ngini = 0.643\nsamples = 239\nvalue = [52, 83, 104]"] ;
559 -> 560 ;
561 [label="PLANE_AGE <= 0.688\ngini = 0.635\nsamples = 42\nvalue = [18, 8, 16]"] ;
560 -> 561 ;
562 [label="TMAX <= -0.363\ngini = 0.602\nsamples = 38\nvalue = [18, 5, 15]"] ;
561 -> 562 ;
563 [label="NUMBER_OF_SEATS <= -0.85\ngini = 0.549\nsamples = 18\nvalue = [11, 3, 4]"] ;
562 -> 563 ;
564 [label="gini = 0.461\nsamples = 16\nvalue = [11, 1, 4]"] ;
563 -> 564 ;
565 [label="gini = 0.0\nsamples = 2\nvalue = [0, 2, 0]"] ;
563 -> 565 ;
566 [label="TMAX <= 0.394\ngini = 0.565\nsamples = 20\nvalue = [7, 2, 11]"] ;
562 -> 566 ;
567 [label="gini = 0.37\nsamples = 9\nvalue = [1, 1, 7]"] ;
566 -> 567 ;
568 [label="gini = 0.562\nsamples = 11\nvalue = [6, 1, 4]"] ;
566 -> 568 ;
569 [label="CONCURRENT_FLIGHTS <= -0.413\ngini = 0.375\nsamples = 4\nvalue = [0, 3, 1]"] ;
561 -> 569 ;
570 [label="gini = 0.0\nsamples = 1\nvalue = [0, 0, 1]"] ;
569 -> 570 ;
571 [label="gini = 0.0\nsamples = 3\nvalue = [0, 3, 0]"] ;
569 -> 571 ;
572 [label="PLANE_AGE <= 0.949\ngini = 0.626\nsamples = 197\nvalue = [34, 75, 88]"] ;
560 -> 572 ;
573 [label="AWND <= -0.506\ngini = 0.619\nsamples = 194\nvalue = [31, 75, 88]"] ;
572 -> 573 ;
574 [label="AIRLINE_AIRPORT_FLIGHTS_MONTH <= -0.511\ngini = 0.622\nsamples = 67\nvalue = [13, 33, 21]"] ;
573 -> 574 ;
575 [label="gini = 0.591\nsamples = 52\nvalue = [11, 29, 12]"] ;
574 -> 575 ;
576 [label="gini = 0.551\nsamples = 15\nvalue = [2, 4, 9]"] ;
574 -> 576 ;
577 [label="NUMBER_OF_SEATS <= -1.684\ngini = 0.592\nsamples = 127\nvalue = [18, 42, 67]"] ;
573 -> 577 ;
578 [label="gini = 0.332\nsamples = 19\nvalue = [4, 0, 15]"] ;
577 -> 578 ;
579 [label="gini = 0.6\nsamples = 108\nvalue = [14, 42, 52]"] ;
577 -> 579 ;
580 [label="gini = 0.0\nsamples = 3\nvalue = [3, 0, 0]"] ;
572 -> 580 ;
581 [label="MONTH_12 <= 1.507\ngini = 0.538\nsamples = 1435\nvalue = [211, 332, 892]"] ;
559 -> 581 ;
582 [label="DISTANCE <= -0.457\ngini = 0.516\nsamples = 1252\nvalue = [168, 275, 809]"] ;
581 -> 582 ;
583 [label="PREVIOUS_AIRPORT_Shreveport Regional <= 8.633\ngini = 0.488\nsamples = 916\nvalue = [124, 172, 620]"] ;
582 -> 583 ;
584 [label="PREVIOUS_AIRPORT_Lehigh Valley International <= 13.131\ngini = 0.485\nsamples = 912\nvalue = [124, 168, 620]"] ;
583 -> 584 ;
585 [label="gini = 0.479\nsamples = 903\nvalue = [120, 164, 619]"] ;
584 -> 585 ;
586 [label="gini = 0.593\nsamples = 9\nvalue = [4, 4, 1]"] ;
584 -> 586 ;
587 [label="gini = 0.0\nsamples = 4\nvalue = [0, 4, 0]"] ;
583 -> 587 ;
588 [label="PREVIOUS_AIRPORT_Greenville-Spartanburg <= 6.886\ngini = 0.572\nsamples = 336\nvalue = [44, 103, 189]"] ;
582 -> 588 ;
589 [label="PREVIOUS_AIRPORT_Waterloo Regional <= 20.255\ngini = 0.567\nsamples = 333\nvalue = [41, 103, 189]"] ;
588 -> 589 ;
590 [label="gini = 0.564\nsamples = 329\nvalue = [41, 99, 189]"] ;
589 -> 590 ;
591 [label="gini = 0.0\nsamples = 4\nvalue = [0, 4, 0]"] ;
589 -> 591 ;
592 [label="gini = 0.0\nsamples = 3\nvalue = [3, 0, 0]"] ;
588 -> 592 ;
593 [label="AWND <= -0.132\ngini = 0.642\nsamples = 183\nvalue = [43, 57, 83]"] ;
581 -> 593 ;
594 [label="CONCURRENT_FLIGHTS <= -0.387\ngini = 0.63\nsamples = 103\nvalue = [30, 23, 50]"] ;
593 -> 594 ;
595 [label="gini = 0.0\nsamples = 3\nvalue = [3, 0, 0]"] ;
594 -> 595 ;
596 [label="DISTANCE <= -0.824\ngini = 0.624\nsamples = 100\nvalue = [27, 23, 50]"] ;
594 -> 596 ;
597 [label="gini = 0.657\nsamples = 63\nvalue = [18, 19, 26]"] ;
596 -> 597 ;
598 [label="gini = 0.508\nsamples = 37\nvalue = [9, 4, 24]"] ;
596 -> 598 ;
599 [label="PREVIOUS_AIRPORT_Dubuque Regional <= 16.278\ngini = 0.623\nsamples = 80\nvalue = [13, 34, 33]"] ;
593 -> 599 ;
600 [label="PREVIOUS_AIRPORT_Central Illinois Regional <= 10.73\ngini = 0.625\nsamples = 77\nvalue = [13, 34, 30]"] ;
599 -> 600 ;
601 [label="gini = 0.625\nsamples = 74\nvalue = [13, 34, 27]"] ;
600 -> 601 ;
602 [label="gini = 0.0\nsamples = 3\nvalue = [0, 0, 3]"] ;
600 -> 602 ;
603 [label="gini = 0.0\nsamples = 3\nvalue = [0, 0, 3]"] ;
599 -> 603 ;
604 [label="PREVIOUS_AIRPORT_Westchester County <= 9.958\ngini = 0.523\nsamples = 1154\nvalue = [166, 249, 739]"] ;
512 -> 604 ;
605 [label="AIRLINE_FLIGHTS_MONTH <= 0.051\ngini = 0.519\nsamples = 1147\nvalue = [163, 245, 739]"] ;
604 -> 605 ;
606 [label="CONCURRENT_FLIGHTS <= 2.118\ngini = 0.487\nsamples = 434\nvalue = [72, 67, 295]"] ;
605 -> 606 ;
607 [label="AIRLINE_AIRPORT_FLIGHTS_MONTH <= -0.842\ngini = 0.443\nsamples = 349\nvalue = [52, 46, 251]"] ;
606 -> 607 ;
608 [label="AWND <= -0.381\ngini = 0.396\nsamples = 214\nvalue = [31, 21, 162]"] ;
607 -> 608 ;
609 [label="DISTANCE <= -0.172\ngini = 0.366\nsamples = 109\nvalue = [9, 15, 85]"] ;
608 -> 609 ;
610 [label="gini = 0.334\nsamples = 102\nvalue = [8, 12, 82]"] ;
609 -> 610 ;
611 [label="gini = 0.612\nsamples = 7\nvalue = [1, 3, 3]"] ;
609 -> 611 ;
612 [label="DAY_OF_WEEK_4 <= 0.974\ngini = 0.415\nsamples = 105\nvalue = [22, 6, 77]"] ;
608 -> 612 ;
613 [label="gini = 0.455\nsamples = 92\nvalue = [22, 6, 64]"] ;
612 -> 613 ;
614 [label="gini = 0.0\nsamples = 13\nvalue = [0, 0, 13]"] ;
612 -> 614 ;
615 [label="PREVIOUS_AIRPORT_Roanoke Regional/Woodrum Field <= 12.143\ngini = 0.507\nsamples = 135\nvalue = [21, 25, 89]"] ;
607 -> 615 ;
616 [label="TMAX <= 1.201\ngini = 0.489\nsamples = 130\nvalue = [18, 24, 88]"] ;
615 -> 616 ;
617 [label="gini = 0.474\nsamples = 120\nvalue = [18, 19, 83]"] ;
616 -> 617 ;
618 [label="gini = 0.5\nsamples = 10\nvalue = [0, 5, 5]"] ;
616 -> 618 ;
619 [label="CONCURRENT_FLIGHTS <= 1.143\ngini = 0.56\nsamples = 5\nvalue = [3, 1, 1]"] ;
615 -> 619 ;
620 [label="gini = 0.0\nsamples = 3\nvalue = [3, 0, 0]"] ;
619 -> 620 ;
621 [label="gini = 0.5\nsamples = 2\nvalue = [0, 1, 1]"] ;
619 -> 621 ;
622 [label="MONTH_7 <= 1.398\ngini = 0.616\nsamples = 85\nvalue = [20, 21, 44]"] ;
606 -> 622 ;
623 [label="PLANE_AGE <= -0.551\ngini = 0.611\nsamples = 57\nvalue = [18, 10, 29]"] ;
622 -> 623 ;
624 [label="TMAX <= 1.024\ngini = 0.628\nsamples = 11\nvalue = [2, 5, 4]"] ;
623 -> 624 ;
625 [label="gini = 0.444\nsamples = 6\nvalue = [0, 2, 4]"] ;
624 -> 625 ;
626 [label="gini = 0.48\nsamples = 5\nvalue = [2, 3, 0]"] ;
624 -> 626 ;
627 [label="AWND <= -0.663\ngini = 0.572\nsamples = 46\nvalue = [16, 5, 25]"] ;
623 -> 627 ;
628 [label="gini = 0.421\nsamples = 19\nvalue = [3, 2, 14]"] ;
627 -> 628 ;
629 [label="gini = 0.59\nsamples = 27\nvalue = [13, 3, 11]"] ;
627 -> 629 ;
630 [label="NUMBER_OF_SEATS <= -1.243\ngini = 0.554\nsamples = 28\nvalue = [2, 11, 15]"] ;
622 -> 630 ;
631 [label="TMAX <= 0.797\ngini = 0.5\nsamples = 12\nvalue = [2, 2, 8]"] ;
630 -> 631 ;
632 [label="gini = 0.0\nsamples = 2\nvalue = [0, 2, 0]"] ;
631 -> 632 ;
633 [label="gini = 0.32\nsamples = 10\nvalue = [2, 0, 8]"] ;
631 -> 633 ;
634 [label="DAY_OF_WEEK_3 <= 1.024\ngini = 0.492\nsamples = 16\nvalue = [0, 9, 7]"] ;
630 -> 634 ;
635 [label="gini = 0.375\nsamples = 12\nvalue = [0, 9, 3]"] ;
634 -> 635 ;
636 [label="gini = 0.0\nsamples = 4\nvalue = [0, 0, 4]"] ;
634 -> 636 ;
637 [label="TMAX <= -0.363\ngini = 0.534\nsamples = 713\nvalue = [91, 178, 444]"] ;
605 -> 637 ;
638 [label="AIRLINE_AIRPORT_FLIGHTS_MONTH <= -0.96\ngini = 0.607\nsamples = 133\nvalue = [19, 50, 64]"] ;
637 -> 638 ;
639 [label="PLANE_AGE <= 0.557\ngini = 0.544\nsamples = 26\nvalue = [4, 16, 6]"] ;
638 -> 639 ;
640 [label="gini = 0.0\nsamples = 9\nvalue = [0, 9, 0]"] ;
639 -> 640 ;
641 [label="DISTANCE <= -0.866\ngini = 0.651\nsamples = 17\nvalue = [4, 7, 6]"] ;
639 -> 641 ;
642 [label="gini = 0.595\nsamples = 11\nvalue = [3, 2, 6]"] ;
641 -> 642 ;
643 [label="gini = 0.278\nsamples = 6\nvalue = [1, 5, 0]"] ;
641 -> 643 ;
644 [label="AIRLINE_FLIGHTS_MONTH <= 0.185\ngini = 0.586\nsamples = 107\nvalue = [15, 34, 58]"] ;
638 -> 644 ;
645 [label="PLANE_AGE <= 0.101\ngini = 0.48\nsamples = 5\nvalue = [3, 2, 0]"] ;
644 -> 645 ;
646 [label="gini = 0.0\nsamples = 2\nvalue = [0, 2, 0]"] ;
645 -> 646 ;
647 [label="gini = 0.0\nsamples = 3\nvalue = [3, 0, 0]"] ;
645 -> 647 ;
648 [label="AWND <= 0.056\ngini = 0.564\nsamples = 102\nvalue = [12, 32, 58]"] ;
644 -> 648 ;
649 [label="gini = 0.633\nsamples = 38\nvalue = [7, 15, 16]"] ;
648 -> 649 ;
650 [label="gini = 0.493\nsamples = 64\nvalue = [5, 17, 42]"] ;
648 -> 650 ;
651 [label="AIRPORT_FLIGHTS_MONTH <= 0.947\ngini = 0.507\nsamples = 580\nvalue = [72, 128, 380]"] ;
637 -> 651 ;
652 [label="DISTANCE <= -1.145\ngini = 0.393\nsamples = 124\nvalue = [10, 20, 94]"] ;
651 -> 652 ;
653 [label="DAY_OF_WEEK_3 <= 1.024\ngini = 0.615\nsamples = 13\nvalue = [2, 5, 6]"] ;
652 -> 653 ;
654 [label="gini = 0.62\nsamples = 10\nvalue = [2, 5, 3]"] ;
653 -> 654 ;
655 [label="gini = 0.0\nsamples = 3\nvalue = [0, 0, 3]"] ;
653 -> 655 ;
656 [label="PREVIOUS_AIRPORT_Key West International <= 12.608\ngini = 0.348\nsamples = 111\nvalue = [8, 15, 88]"] ;
652 -> 656 ;
657 [label="gini = 0.337\nsamples = 110\nvalue = [7, 15, 88]"] ;
656 -> 657 ;
658 [label="gini = 0.0\nsamples = 1\nvalue = [1, 0, 0]"] ;
656 -> 658 ;
659 [label="PREVIOUS_AIRPORT_Lehigh Valley International <= 13.131\ngini = 0.532\nsamples = 456\nvalue = [62, 108, 286]"] ;
651 -> 659 ;
660 [label="AWND <= -1.567\ngini = 0.526\nsamples = 451\nvalue = [59, 106, 286]"] ;
659 -> 660 ;
661 [label="gini = 0.142\nsamples = 13\nvalue = [0, 1, 12]"] ;
660 -> 661 ;
662 [label="gini = 0.533\nsamples = 438\nvalue = [59, 105, 274]"] ;
660 -> 662 ;
663 [label="PLANE_AGE <= 0.427\ngini = 0.48\nsamples = 5\nvalue = [3, 2, 0]"] ;
659 -> 663 ;
664 [label="gini = 0.0\nsamples = 2\nvalue = [2, 0, 0]"] ;
663 -> 664 ;
665 [label="gini = 0.444\nsamples = 3\nvalue = [1, 2, 0]"] ;
663 -> 665 ;
666 [label="DISTANCE <= -0.757\ngini = 0.49\nsamples = 7\nvalue = [3, 4, 0]"] ;
604 -> 666 ;
667 [label="gini = 0.0\nsamples = 3\nvalue = [0, 3, 0]"] ;
666 -> 667 ;
668 [label="CONCURRENT_FLIGHTS <= 1.987\ngini = 0.375\nsamples = 4\nvalue = [3, 1, 0]"] ;
666 -> 668 ;
669 [label="gini = 0.0\nsamples = 3\nvalue = [3, 0, 0]"] ;
668 -> 669 ;
670 [label="gini = 0.0\nsamples = 1\nvalue = [0, 1, 0]"] ;
668 -> 670 ;
671 [label="AVG_MONTHLY_PASS_AIRLINE <= -1.45\ngini = 0.507\nsamples = 291\nvalue = [191, 38, 62]"] ;
325 -> 671 ;
672 [label="MONTH_3 <= 1.528\ngini = 0.068\nsamples = 57\nvalue = [55, 1, 1]"] ;
671 -> 672 ;
673 [label="DAY_OF_WEEK_6 <= 1.199\ngini = 0.035\nsamples = 56\nvalue = [55, 1, 0]"] ;
672 -> 673 ;
674 [label="gini = 0.0\nsamples = 53\nvalue = [53, 0, 0]"] ;
673 -> 674 ;
675 [label="AIRLINE_AIRPORT_FLIGHTS_MONTH <= -0.788\ngini = 0.444\nsamples = 3\nvalue = [2, 1, 0]"] ;
673 -> 675 ;
676 [label="gini = 0.0\nsamples = 1\nvalue = [0, 1, 0]"] ;
675 -> 676 ;
677 [label="gini = 0.0\nsamples = 2\nvalue = [2, 0, 0]"] ;
675 -> 677 ;
678 [label="gini = 0.0\nsamples = 1\nvalue = [0, 0, 1]"] ;
672 -> 678 ;
679 [label="PREVIOUS_AIRPORT_Nashville International <= 4.621\ngini = 0.569\nsamples = 234\nvalue = [136, 37, 61]"] ;
671 -> 679 ;
680 [label="DAY_OF_WEEK_6 <= 1.199\ngini = 0.554\nsamples = 225\nvalue = [136, 36, 53]"] ;
679 -> 680 ;
681 [label="AIRLINE_FLIGHTS_MONTH <= -1.363\ngini = 0.492\nsamples = 186\nvalue = [125, 24, 37]"] ;
680 -> 681 ;
682 [label="PLANE_AGE <= 0.557\ngini = 0.64\nsamples = 40\nvalue = [16, 8, 16]"] ;
681 -> 682 ;
683 [label="PLANE_AGE <= 0.427\ngini = 0.64\nsamples = 35\nvalue = [16, 8, 11]"] ;
682 -> 683 ;
684 [label="AIRLINE_AIRPORT_FLIGHTS_MONTH <= -0.842\ngini = 0.607\nsamples = 32\nvalue = [16, 5, 11]"] ;
683 -> 684 ;
685 [label="DAY_OF_WEEK_7 <= 1.013\ngini = 0.48\nsamples = 5\nvalue = [0, 2, 3]"] ;
684 -> 685 ;
686 [label="gini = 0.0\nsamples = 3\nvalue = [0, 0, 3]"] ;
685 -> 686 ;
687 [label="gini = 0.0\nsamples = 2\nvalue = [0, 2, 0]"] ;
685 -> 687 ;
688 [label="TMAX <= 0.999\ngini = 0.549\nsamples = 27\nvalue = [16, 3, 8]"] ;
684 -> 688 ;
689 [label="gini = 0.486\nsamples = 24\nvalue = [16, 2, 6]"] ;
688 -> 689 ;
690 [label="gini = 0.444\nsamples = 3\nvalue = [0, 1, 2]"] ;
688 -> 690 ;
691 [label="gini = 0.0\nsamples = 3\nvalue = [0, 3, 0]"] ;
683 -> 691 ;
692 [label="gini = 0.0\nsamples = 5\nvalue = [0, 0, 5]"] ;
682 -> 692 ;
693 [label="AIRLINE_AIRPORT_FLIGHTS_MONTH <= 0.563\ngini = 0.41\nsamples = 146\nvalue = [109, 16, 21]"] ;
681 -> 693 ;
694 [label="DISTANCE <= 0.274\ngini = 0.288\nsamples = 97\nvalue = [81, 6, 10]"] ;
693 -> 694 ;
695 [label="PREVIOUS_AIRPORT_Joe Foss Field <= 11.348\ngini = 0.262\nsamples = 95\nvalue = [81, 6, 8]"] ;
694 -> 695 ;
696 [label="MONTH_2 <= 1.64\ngini = 0.233\nsamples = 93\nvalue = [81, 6, 6]"] ;
695 -> 696 ;
697 [label="gini = 0.187\nsamples = 89\nvalue = [80, 5, 4]"] ;
696 -> 697 ;
698 [label="gini = 0.625\nsamples = 4\nvalue = [1, 1, 2]"] ;
696 -> 698 ;
699 [label="gini = 0.0\nsamples = 2\nvalue = [0, 0, 2]"] ;
695 -> 699 ;
700 [label="gini = 0.0\nsamples = 2\nvalue = [0, 0, 2]"] ;
694 -> 700 ;
701 [label="PLANE_AGE <= 0.492\ngini = 0.581\nsamples = 49\nvalue = [28, 10, 11]"] ;
693 -> 701 ;
702 [label="DISTANCE <= -0.363\ngini = 0.667\nsamples = 30\nvalue = [10, 10, 10]"] ;
701 -> 702 ;
703 [label="CONCURRENT_FLIGHTS <= 0.22\ngini = 0.651\nsamples = 26\nvalue = [6, 10, 10]"] ;
702 -> 703 ;
704 [label="gini = 0.604\nsamples = 15\nvalue = [4, 8, 3]"] ;
703 -> 704 ;
705 [label="gini = 0.529\nsamples = 11\nvalue = [2, 2, 7]"] ;
703 -> 705 ;
706 [label="gini = 0.0\nsamples = 4\nvalue = [4, 0, 0]"] ;
702 -> 706 ;
707 [label="MONTH_1 <= 1.621\ngini = 0.1\nsamples = 19\nvalue = [18, 0, 1]"] ;
701 -> 707 ;
708 [label="gini = 0.0\nsamples = 18\nvalue = [18, 0, 0]"] ;
707 -> 708 ;
709 [label="gini = 0.0\nsamples = 1\nvalue = [0, 0, 1]"] ;
707 -> 709 ;
710 [label="CONCURRENT_FLIGHTS <= 0.035\ngini = 0.657\nsamples = 39\nvalue = [11, 12, 16]"] ;
680 -> 710 ;
711 [label="AIRLINE_FLIGHTS_MONTH <= -1.266\ngini = 0.663\nsamples = 29\nvalue = [11, 9, 9]"] ;
710 -> 711 ;
712 [label="DISTANCE <= -1.091\ngini = 0.56\nsamples = 10\nvalue = [2, 2, 6]"] ;
711 -> 712 ;
713 [label="AIRLINE_FLIGHTS_MONTH <= -1.584\ngini = 0.625\nsamples = 4\nvalue = [2, 1, 1]"] ;
712 -> 713 ;
714 [label="gini = 0.0\nsamples = 1\nvalue = [0, 0, 1]"] ;
713 -> 714 ;
715 [label="DISTANCE <= -1.225\ngini = 0.444\nsamples = 3\nvalue = [2, 1, 0]"] ;
713 -> 715 ;
716 [label="gini = 0.0\nsamples = 1\nvalue = [0, 1, 0]"] ;
715 -> 716 ;
717 [label="gini = 0.0\nsamples = 2\nvalue = [2, 0, 0]"] ;
715 -> 717 ;
718 [label="GROUND_SERV_PER_PASS <= -1.07\ngini = 0.278\nsamples = 6\nvalue = [0, 1, 5]"] ;
712 -> 718 ;
719 [label="gini = 0.0\nsamples = 1\nvalue = [0, 1, 0]"] ;
718 -> 719 ;
720 [label="gini = 0.0\nsamples = 5\nvalue = [0, 0, 5]"] ;
718 -> 720 ;
721 [label="DISTANCE <= -1.199\ngini = 0.615\nsamples = 19\nvalue = [9, 7, 3]"] ;
711 -> 721 ;
722 [label="MONTH_3 <= 1.528\ngini = 0.375\nsamples = 4\nvalue = [1, 0, 3]"] ;
721 -> 722 ;
723 [label="gini = 0.0\nsamples = 3\nvalue = [0, 0, 3]"] ;
722 -> 723 ;
724 [label="gini = 0.0\nsamples = 1\nvalue = [1, 0, 0]"] ;
722 -> 724 ;
725 [label="AIRPORT_FLIGHTS_MONTH <= -0.951\ngini = 0.498\nsamples = 15\nvalue = [8, 7, 0]"] ;
721 -> 725 ;
726 [label="gini = 0.0\nsamples = 3\nvalue = [3, 0, 0]"] ;
725 -> 726 ;
727 [label="AIRLINE_AIRPORT_FLIGHTS_MONTH <= 0.083\ngini = 0.486\nsamples = 12\nvalue = [5, 7, 0]"] ;
725 -> 727 ;
728 [label="gini = 0.0\nsamples = 3\nvalue = [0, 3, 0]"] ;
727 -> 728 ;
729 [label="gini = 0.494\nsamples = 9\nvalue = [5, 4, 0]"] ;
727 -> 729 ;
730 [label="PLANE_AGE <= 0.297\ngini = 0.42\nsamples = 10\nvalue = [0, 3, 7]"] ;
710 -> 730 ;
731 [label="AIRPORT_FLIGHTS_MONTH <= 1.117\ngini = 0.48\nsamples = 5\nvalue = [0, 3, 2]"] ;
730 -> 731 ;
732 [label="gini = 0.0\nsamples = 3\nvalue = [0, 3, 0]"] ;
731 -> 732 ;
733 [label="gini = 0.0\nsamples = 2\nvalue = [0, 0, 2]"] ;
731 -> 733 ;
734 [label="gini = 0.0\nsamples = 5\nvalue = [0, 0, 5]"] ;
730 -> 734 ;
735 [label="DISTANCE <= -0.572\ngini = 0.198\nsamples = 9\nvalue = [0, 1, 8]"] ;
679 -> 735 ;
736 [label="gini = 0.0\nsamples = 8\nvalue = [0, 0, 8]"] ;
735 -> 736 ;
737 [label="gini = 0.0\nsamples = 1\nvalue = [0, 1, 0]"] ;
735 -> 737 ;
738 [label="DISTANCE <= -0.061\ngini = 0.654\nsamples = 44047\nvalue = [13809, 11726, 18512]"] ;
324 -> 738 ;
739 [label="FLT_ATTENDANTS_PER_PASS <= -0.08\ngini = 0.649\nsamples = 34853\nvalue = [10309, 9238, 15306]"] ;
738 -> 739 ;
740 [label="AIRLINE_AIRPORT_FLIGHTS_MONTH <= -0.836\ngini = 0.655\nsamples = 19449\nvalue = [6501, 5012, 7936]"] ;
739 -> 740 ;
741 [label="AIRLINE_AIRPORT_FLIGHTS_MONTH <= -0.876\ngini = 0.645\nsamples = 9455\nvalue = [2820, 2385, 4250]"] ;
740 -> 741 ;
742 [label="AIRPORT_FLIGHTS_MONTH <= 0.947\ngini = 0.652\nsamples = 7506\nvalue = [2405, 1914, 3187]"] ;
741 -> 742 ;
743 [label="AIRLINE_FLIGHTS_MONTH <= -1.527\ngini = 0.64\nsamples = 4924\nvalue = [1494, 1164, 2266]"] ;
742 -> 743 ;
744 [label="PLANE_AGE <= 0.688\ngini = 0.657\nsamples = 1469\nvalue = [566, 373, 530]"] ;
743 -> 744 ;
745 [label="MONTH_11 <= 1.627\ngini = 0.659\nsamples = 1328\nvalue = [485, 346, 497]"] ;
744 -> 745 ;
746 [label="TMAX <= -1.575\ngini = 0.66\nsamples = 1240\nvalue = [464, 330, 446]"] ;
745 -> 746 ;
747 [label="gini = 0.633\nsamples = 176\nvalue = [85, 47, 44]"] ;
746 -> 747 ;
748 [label="gini = 0.66\nsamples = 1064\nvalue = [379, 283, 402]"] ;
746 -> 748 ;
749 [label="DEP_TIME_BLK_1800-1859 <= 1.587\ngini = 0.574\nsamples = 88\nvalue = [21, 16, 51]"] ;
745 -> 749 ;
750 [label="gini = 0.529\nsamples = 77\nvalue = [14, 14, 49]"] ;
749 -> 750 ;
751 [label="gini = 0.529\nsamples = 11\nvalue = [7, 2, 2]"] ;
749 -> 751 ;
752 [label="DISTANCE <= -0.885\ngini = 0.579\nsamples = 141\nvalue = [81, 27, 33]"] ;
744 -> 752 ;
753 [label="PREVIOUS_AIRPORT_Nashville International <= 4.621\ngini = 0.349\nsamples = 38\nvalue = [30, 2, 6]"] ;
752 -> 753 ;
754 [label="gini = 0.29\nsamples = 36\nvalue = [30, 2, 4]"] ;
753 -> 754 ;
755 [label="gini = 0.0\nsamples = 2\nvalue = [0, 0, 2]"] ;
753 -> 755 ;
756 [label="DISTANCE <= -0.326\ngini = 0.627\nsamples = 103\nvalue = [51, 25, 27]"] ;
752 -> 756 ;
757 [label="gini = 0.662\nsamples = 58\nvalue = [21, 16, 21]"] ;
756 -> 757 ;
758 [label="gini = 0.498\nsamples = 45\nvalue = [30, 9, 6]"] ;
756 -> 758 ;
759 [label="DEP_TIME_BLK_2200-2259 <= 2.115\ngini = 0.623\nsamples = 3455\nvalue = [928, 791, 1736]"] ;
743 -> 759 ;
760 [label="MONTH_11 <= 1.627\ngini = 0.627\nsamples = 3270\nvalue = [902, 756, 1612]"] ;
759 -> 760 ;
761 [label="DEP_TIME_BLK_2000-2059 <= 1.674\ngini = 0.632\nsamples = 2879\nvalue = [830, 663, 1386]"] ;
760 -> 761 ;
762 [label="gini = 0.637\nsamples = 2616\nvalue = [775, 611, 1230]"] ;
761 -> 762 ;
763 [label="gini = 0.565\nsamples = 263\nvalue = [55, 52, 156]"] ;
761 -> 763 ;
764 [label="DISTANCE <= -1.21\ngini = 0.575\nsamples = 391\nvalue = [72, 93, 226]"] ;
760 -> 764 ;
765 [label="gini = 0.595\nsamples = 20\nvalue = [5, 11, 4]"] ;
764 -> 765 ;
766 [label="gini = 0.56\nsamples = 371\nvalue = [67, 82, 222]"] ;
764 -> 766 ;
767 [label="TMAX <= -1.398\ngini = 0.495\nsamples = 185\nvalue = [26, 35, 124]"] ;
759 -> 767 ;
768 [label="CONCURRENT_FLIGHTS <= -1.678\ngini = 0.494\nsamples = 9\nvalue = [1, 6, 2]"] ;
767 -> 768 ;
769 [label="gini = 0.0\nsamples = 4\nvalue = [0, 4, 0]"] ;
768 -> 769 ;
770 [label="gini = 0.64\nsamples = 5\nvalue = [1, 2, 2]"] ;
768 -> 770 ;
771 [label="PREVIOUS_AIRPORT_McAllen Miller International <= 10.75\ngini = 0.472\nsamples = 176\nvalue = [25, 29, 122]"] ;
767 -> 771 ;
772 [label="gini = 0.463\nsamples = 174\nvalue = [23, 29, 122]"] ;
771 -> 772 ;
773 [label="gini = 0.0\nsamples = 2\nvalue = [2, 0, 0]"] ;
771 -> 773 ;
774 [label="DEP_TIME_BLK_1000-1059 <= 1.58\ngini = 0.664\nsamples = 2582\nvalue = [911, 750, 921]"] ;
742 -> 774 ;
775 [label="SEGMENT_NUMBER <= 0.733\ngini = 0.664\nsamples = 2548\nvalue = [884, 744, 920]"] ;
774 -> 775 ;
776 [label="CONCURRENT_FLIGHTS <= -0.571\ngini = 0.66\nsamples = 1078\nvalue = [322, 327, 429]"] ;
775 -> 776 ;
777 [label="CONCURRENT_FLIGHTS <= -1.388\ngini = 0.636\nsamples = 94\nvalue = [42, 19, 33]"] ;
776 -> 777 ;
778 [label="gini = 0.408\nsamples = 7\nvalue = [2, 5, 0]"] ;
777 -> 778 ;
779 [label="gini = 0.619\nsamples = 87\nvalue = [40, 14, 33]"] ;
777 -> 779 ;
780 [label="DEP_TIME_BLK_1700-1759 <= 2.018\ngini = 0.659\nsamples = 984\nvalue = [280, 308, 396]"] ;
776 -> 780 ;
781 [label="gini = 0.658\nsamples = 948\nvalue = [261, 303, 384]"] ;
780 -> 781 ;
782 [label="gini = 0.591\nsamples = 36\nvalue = [19, 5, 12]"] ;
780 -> 782 ;
783 [label="AIRLINE_FLIGHTS_MONTH <= 0.341\ngini = 0.662\nsamples = 1470\nvalue = [562, 417, 491]"] ;
775 -> 783 ;
784 [label="DEP_TIME_BLK_1600-1659 <= 1.719\ngini = 0.663\nsamples = 1046\nvalue = [362, 301, 383]"] ;
783 -> 784 ;
785 [label="gini = 0.661\nsamples = 915\nvalue = [300, 261, 354]"] ;
784 -> 785 ;
786 [label="gini = 0.634\nsamples = 131\nvalue = [62, 40, 29]"] ;
784 -> 786 ;
787 [label="PREVIOUS_AIRPORT_Gainesville Regional <= 10.41\ngini = 0.638\nsamples = 424\nvalue = [200, 116, 108]"] ;
783 -> 787 ;
788 [label="gini = 0.635\nsamples = 412\nvalue = [197, 115, 100]"] ;
787 -> 788 ;
789 [label="gini = 0.486\nsamples = 12\nvalue = [3, 1, 8]"] ;
787 -> 789 ;
790 [label="PREVIOUS_AIRPORT_Lovell Field <= 7.868\ngini = 0.337\nsamples = 34\nvalue = [27, 6, 1]"] ;
774 -> 790 ;
791 [label="PREVIOUS_AIRPORT_Atlanta Municipal <= 4.427\ngini = 0.196\nsamples = 28\nvalue = [25, 2, 1]"] ;
790 -> 791 ;
792 [label="CARRIER_NAME_American Airlines Inc. <= 0.568\ngini = 0.137\nsamples = 27\nvalue = [25, 2, 0]"] ;
791 -> 792 ;
793 [label="gini = 0.074\nsamples = 26\nvalue = [25, 1, 0]"] ;
792 -> 793 ;
794 [label="gini = 0.0\nsamples = 1\nvalue = [0, 1, 0]"] ;
792 -> 794 ;
795 [label="gini = 0.0\nsamples = 1\nvalue = [0, 0, 1]"] ;
791 -> 795 ;
796 [label="SEGMENT_NUMBER <= 0.148\ngini = 0.444\nsamples = 6\nvalue = [2, 4, 0]"] ;
790 -> 796 ;
797 [label="gini = 0.0\nsamples = 2\nvalue = [2, 0, 0]"] ;
796 -> 797 ;
798 [label="gini = 0.0\nsamples = 4\nvalue = [0, 4, 0]"] ;
796 -> 798 ;
799 [label="AIRLINE_FLIGHTS_MONTH <= -1.54\ngini = 0.599\nsamples = 1949\nvalue = [415, 471, 1063]"] ;
741 -> 799 ;
800 [label="DAY_OF_WEEK_1 <= 0.977\ngini = 0.578\nsamples = 1423\nvalue = [277, 327, 819]"] ;
799 -> 800 ;
801 [label="TMAX <= 1.353\ngini = 0.559\nsamples = 1098\nvalue = [199, 240, 659]"] ;
800 -> 801 ;
802 [label="DEPARTING_AIRPORT_Dallas Fort Worth Regional <= 0.433\ngini = 0.551\nsamples = 1049\nvalue = [180, 229, 640]"] ;
801 -> 802 ;
803 [label="DAY_OF_WEEK_5 <= 0.96\ngini = 0.534\nsamples = 878\nvalue = [137, 189, 552]"] ;
802 -> 803 ;
804 [label="gini = 0.509\nsamples = 703\nvalue = [100, 142, 461]"] ;
803 -> 804 ;
805 [label="gini = 0.613\nsamples = 175\nvalue = [37, 47, 91]"] ;
803 -> 805 ;
806 [label="AWND <= -0.445\ngini = 0.617\nsamples = 171\nvalue = [43, 40, 88]"] ;
802 -> 806 ;
807 [label="gini = 0.474\nsamples = 25\nvalue = [17, 6, 2]"] ;
806 -> 807 ;
808 [label="gini = 0.567\nsamples = 146\nvalue = [26, 34, 86]"] ;
806 -> 808 ;
809 [label="DEP_TIME_BLK_1600-1659 <= 1.719\ngini = 0.649\nsamples = 49\nvalue = [19, 11, 19]"] ;
801 -> 809 ;
810 [label="SEGMENT_NUMBER <= 1.903\ngini = 0.615\nsamples = 40\nvalue = [18, 6, 16]"] ;
809 -> 810 ;
811 [label="gini = 0.599\nsamples = 31\nvalue = [12, 4, 15]"] ;
810 -> 811 ;
812 [label="gini = 0.494\nsamples = 9\nvalue = [6, 2, 1]"] ;
810 -> 812 ;
813 [label="PREVIOUS_AIRPORT_Bush Field <= 10.273\ngini = 0.568\nsamples = 9\nvalue = [1, 5, 3]"] ;
809 -> 813 ;
814 [label="gini = 0.449\nsamples = 7\nvalue = [1, 5, 1]"] ;
813 -> 814 ;
815 [label="gini = 0.0\nsamples = 2\nvalue = [0, 0, 2]"] ;
813 -> 815 ;
816 [label="AWND <= -0.506\ngini = 0.628\nsamples = 325\nvalue = [78, 87, 160]"] ;
800 -> 816 ;
817 [label="PREVIOUS_AIRPORT_Lehigh Valley International <= 13.131\ngini = 0.547\nsamples = 158\nvalue = [26, 35, 97]"] ;
816 -> 817 ;
818 [label="PREVIOUS_AIRPORT_Westchester County <= 9.958\ngini = 0.528\nsamples = 153\nvalue = [22, 34, 97]"] ;
817 -> 818 ;
819 [label="gini = 0.516\nsamples = 148\nvalue = [22, 30, 96]"] ;
818 -> 819 ;
820 [label="gini = 0.32\nsamples = 5\nvalue = [0, 4, 1]"] ;
818 -> 820 ;
821 [label="MONTH_4 <= 1.574\ngini = 0.32\nsamples = 5\nvalue = [4, 1, 0]"] ;
817 -> 821 ;
822 [label="gini = 0.0\nsamples = 4\nvalue = [4, 0, 0]"] ;
821 -> 822 ;
823 [label="gini = 0.0\nsamples = 1\nvalue = [0, 1, 0]"] ;
821 -> 823 ;
824 [label="AIRPORT_FLIGHTS_MONTH <= 0.684\ngini = 0.664\nsamples = 167\nvalue = [52, 52, 63]"] ;
816 -> 824 ;
825 [label="CONCURRENT_FLIGHTS <= 1.275\ngini = 0.635\nsamples = 83\nvalue = [17, 28, 38]"] ;
824 -> 825 ;
826 [label="gini = 0.624\nsamples = 77\nvalue = [16, 23, 38]"] ;
825 -> 826 ;
827 [label="gini = 0.278\nsamples = 6\nvalue = [1, 5, 0]"] ;
825 -> 827 ;
828 [label="AWND <= 0.274\ngini = 0.656\nsamples = 84\nvalue = [35, 24, 25]"] ;
824 -> 828 ;
829 [label="gini = 0.659\nsamples = 52\nvalue = [16, 15, 21]"] ;
828 -> 829 ;
830 [label="gini = 0.553\nsamples = 32\nvalue = [19, 9, 4]"] ;
828 -> 830 ;
831 [label="DEP_TIME_BLK_1000-1059 <= 1.58\ngini = 0.641\nsamples = 526\nvalue = [138, 144, 244]"] ;
799 -> 831 ;
832 [label="AWND <= 0.836\ngini = 0.638\nsamples = 518\nvalue = [132, 142, 244]"] ;
831 -> 832 ;
833 [label="CONCURRENT_FLIGHTS <= 1.486\ngini = 0.627\nsamples = 439\nvalue = [112, 109, 218]"] ;
832 -> 833 ;
834 [label="TMAX <= 0.141\ngini = 0.622\nsamples = 427\nvalue = [104, 107, 216]"] ;
833 -> 834 ;
835 [label="gini = 0.591\nsamples = 223\nvalue = [55, 44, 124]"] ;
834 -> 835 ;
836 [label="gini = 0.644\nsamples = 204\nvalue = [49, 63, 92]"] ;
834 -> 836 ;
837 [label="SEGMENT_NUMBER <= 1.903\ngini = 0.5\nsamples = 12\nvalue = [8, 2, 2]"] ;
833 -> 837 ;
838 [label="gini = 0.219\nsamples = 8\nvalue = [7, 1, 0]"] ;
837 -> 838 ;
839 [label="gini = 0.625\nsamples = 4\nvalue = [1, 1, 2]"] ;
837 -> 839 ;
840 [label="AWND <= 0.96\ngini = 0.653\nsamples = 79\nvalue = [20, 33, 26]"] ;
832 -> 840 ;
841 [label="DISTANCE <= -0.893\ngini = 0.605\nsamples = 23\nvalue = [10, 10, 3]"] ;
840 -> 841 ;
842 [label="gini = 0.278\nsamples = 6\nvalue = [5, 0, 1]"] ;
841 -> 842 ;
843 [label="gini = 0.554\nsamples = 17\nvalue = [5, 10, 2]"] ;
841 -> 843 ;
844 [label="CONCURRENT_FLIGHTS <= 0.141\ngini = 0.631\nsamples = 56\nvalue = [10, 23, 23]"] ;
840 -> 844 ;
845 [label="gini = 0.645\nsamples = 31\nvalue = [8, 9, 14]"] ;
844 -> 845 ;
846 [label="gini = 0.55\nsamples = 25\nvalue = [2, 14, 9]"] ;
844 -> 846 ;
847 [label="AWND <= -0.725\ngini = 0.375\nsamples = 8\nvalue = [6, 2, 0]"] ;
831 -> 847 ;
848 [label="gini = 0.0\nsamples = 5\nvalue = [5, 0, 0]"] ;
847 -> 848 ;
849 [label="PREVIOUS_AIRPORT_Tallahassee Regional <= 9.731\ngini = 0.444\nsamples = 3\nvalue = [1, 2, 0]"] ;
847 -> 849 ;
850 [label="gini = 0.0\nsamples = 2\nvalue = [0, 2, 0]"] ;
849 -> 850 ;
851 [label="gini = 0.0\nsamples = 1\nvalue = [1, 0, 0]"] ;
849 -> 851 ;
852 [label="FLT_ATTENDANTS_PER_PASS <= -0.807\ngini = 0.659\nsamples = 9994\nvalue = [3681, 2627, 3686]"] ;
740 -> 852 ;
853 [label="DEPARTING_AIRPORT_Atlanta Municipal <= 0.257\ngini = 0.656\nsamples = 8773\nvalue = [3237, 2199, 3337]"] ;
852 -> 853 ;
854 [label="MONTH_6 <= 1.353\ngini = 0.655\nsamples = 7597\nvalue = [2902, 1862, 2833]"] ;
853 -> 854 ;
855 [label="AIRLINE_AIRPORT_FLIGHTS_MONTH <= -0.83\ngini = 0.655\nsamples = 6908\nvalue = [2579, 1682, 2647]"] ;
854 -> 855 ;
856 [label="PLANE_AGE <= 0.427\ngini = 0.631\nsamples = 353\nvalue = [172, 90, 91]"] ;
855 -> 856 ;
857 [label="TMAX <= -1.322\ngini = 0.643\nsamples = 297\nvalue = [136, 77, 84]"] ;
856 -> 857 ;
858 [label="gini = 0.379\nsamples = 13\nvalue = [10, 2, 1]"] ;
857 -> 858 ;
859 [label="gini = 0.648\nsamples = 284\nvalue = [126, 75, 83]"] ;
857 -> 859 ;
860 [label="TMAX <= 0.091\ngini = 0.517\nsamples = 56\nvalue = [36, 13, 7]"] ;
856 -> 860 ;
861 [label="gini = 0.489\nsamples = 54\nvalue = [36, 13, 5]"] ;
860 -> 861 ;
862 [label="gini = 0.0\nsamples = 2\nvalue = [0, 0, 2]"] ;
860 -> 862 ;
863 [label="DEP_TIME_BLK_2200-2259 <= 2.115\ngini = 0.654\nsamples = 6555\nvalue = [2407, 1592, 2556]"] ;
855 -> 863 ;
864 [label="DEP_TIME_BLK_1000-1059 <= 1.58\ngini = 0.655\nsamples = 6086\nvalue = [2277, 1488, 2321]"] ;
863 -> 864 ;
865 [label="gini = 0.655\nsamples = 5941\nvalue = [2193, 1470, 2278]"] ;
864 -> 865 ;
866 [label="gini = 0.561\nsamples = 145\nvalue = [84, 18, 43]"] ;
864 -> 866 ;
867 [label="CONCURRENT_FLIGHTS <= -0.466\ngini = 0.623\nsamples = 469\nvalue = [130, 104, 235]"] ;
863 -> 867 ;
868 [label="gini = 0.595\nsamples = 344\nvalue = [88, 67, 189]"] ;
867 -> 868 ;
869 [label="gini = 0.664\nsamples = 125\nvalue = [42, 37, 46]"] ;
867 -> 869 ;
870 [label="PRECIPITATION_DEPARTING_AIRPORT_RELATIVE <= -0.336\ngini = 0.639\nsamples = 689\nvalue = [323, 180, 186]"] ;
854 -> 870 ;
871 [label="DAY_OF_WEEK_1 <= 0.977\ngini = 0.646\nsamples = 655\nvalue = [295, 175, 185]"] ;
870 -> 871 ;
872 [label="SEGMENT_NUMBER <= 0.733\ngini = 0.658\nsamples = 496\nvalue = [203, 145, 148]"] ;
871 -> 872 ;
873 [label="gini = 0.662\nsamples = 270\nvalue = [98, 97, 75]"] ;
872 -> 873 ;
874 [label="gini = 0.635\nsamples = 226\nvalue = [105, 48, 73]"] ;
872 -> 874 ;
875 [label="TMAX <= -0.01\ngini = 0.575\nsamples = 159\nvalue = [92, 30, 37]"] ;
871 -> 875 ;
876 [label="gini = 0.644\nsamples = 52\nvalue = [21, 11, 20]"] ;
875 -> 876 ;
877 [label="gini = 0.503\nsamples = 107\nvalue = [71, 19, 17]"] ;
875 -> 877 ;
878 [label="PLANE_AGE <= 0.688\ngini = 0.299\nsamples = 34\nvalue = [28, 5, 1]"] ;
870 -> 878 ;
879 [label="PREVIOUS_AIRPORT_Rochester Municipal <= 12.187\ngini = 0.184\nsamples = 30\nvalue = [27, 2, 1]"] ;
878 -> 879 ;
880 [label="gini = 0.128\nsamples = 29\nvalue = [27, 2, 0]"] ;
879 -> 880 ;
881 [label="gini = 0.0\nsamples = 1\nvalue = [0, 0, 1]"] ;
879 -> 881 ;
882 [label="DEP_TIME_BLK_1900-1959 <= 1.814\ngini = 0.375\nsamples = 4\nvalue = [1, 3, 0]"] ;
878 -> 882 ;
883 [label="gini = 0.0\nsamples = 3\nvalue = [0, 3, 0]"] ;
882 -> 883 ;
884 [label="gini = 0.0\nsamples = 1\nvalue = [1, 0, 0]"] ;
882 -> 884 ;
885 [label="TMAX <= -0.136\ngini = 0.653\nsamples = 1176\nvalue = [335, 337, 504]"] ;
853 -> 885 ;
886 [label="DEP_TIME_BLK_1000-1059 <= 1.58\ngini = 0.58\nsamples = 226\nvalue = [35, 64, 127]"] ;
885 -> 886 ;
887 [label="AWND <= -1.662\ngini = 0.573\nsamples = 223\nvalue = [32, 64, 127]"] ;
886 -> 887 ;
888 [label="PREVIOUS_AIRPORT_Bush Field <= 10.273\ngini = 0.124\nsamples = 15\nvalue = [0, 1, 14]"] ;
887 -> 888 ;
889 [label="gini = 0.0\nsamples = 13\nvalue = [0, 0, 13]"] ;
888 -> 889 ;
890 [label="gini = 0.5\nsamples = 2\nvalue = [0, 1, 1]"] ;
888 -> 890 ;
891 [label="DEP_TIME_BLK_2100-2159 <= 2.084\ngini = 0.589\nsamples = 208\nvalue = [32, 63, 113]"] ;
887 -> 891 ;
892 [label="gini = 0.578\nsamples = 181\nvalue = [30, 48, 103]"] ;
891 -> 892 ;
893 [label="gini = 0.549\nsamples = 27\nvalue = [2, 15, 10]"] ;
891 -> 893 ;
894 [label="gini = 0.0\nsamples = 3\nvalue = [3, 0, 0]"] ;
886 -> 894 ;
895 [label="AWND <= 0.68\ngini = 0.66\nsamples = 950\nvalue = [300, 273, 377]"] ;
885 -> 895 ;
896 [label="CONCURRENT_FLIGHTS <= -1.309\ngini = 0.658\nsamples = 911\nvalue = [274, 265, 372]"] ;
895 -> 896 ;
897 [label="PLANE_AGE <= -0.877\ngini = 0.395\nsamples = 29\nvalue = [4, 3, 22]"] ;
896 -> 897 ;
898 [label="gini = 0.5\nsamples = 2\nvalue = [1, 1, 0]"] ;
897 -> 898 ;
899 [label="gini = 0.318\nsamples = 27\nvalue = [3, 2, 22]"] ;
897 -> 899 ;
900 [label="AWND <= -0.88\ngini = 0.661\nsamples = 882\nvalue = [270, 262, 350]"] ;
896 -> 900 ;
901 [label="gini = 0.632\nsamples = 247\nvalue = [54, 75, 118]"] ;
900 -> 901 ;
902 [label="gini = 0.664\nsamples = 635\nvalue = [216, 187, 232]"] ;
900 -> 902 ;
903 [label="DEP_TIME_BLK_1700-1759 <= 2.018\ngini = 0.497\nsamples = 39\nvalue = [26, 8, 5]"] ;
895 -> 903 ;
904 [label="TMAX <= 0.267\ngini = 0.433\nsamples = 33\nvalue = [24, 4, 5]"] ;
903 -> 904 ;
905 [label="gini = 0.227\nsamples = 23\nvalue = [20, 0, 3]"] ;
904 -> 905 ;
906 [label="gini = 0.64\nsamples = 10\nvalue = [4, 4, 2]"] ;
904 -> 906 ;
907 [label="SEGMENT_NUMBER <= 2.196\ngini = 0.444\nsamples = 6\nvalue = [2, 4, 0]"] ;
903 -> 907 ;
908 [label="gini = 0.0\nsamples = 4\nvalue = [0, 4, 0]"] ;
907 -> 908 ;
909 [label="gini = 0.0\nsamples = 2\nvalue = [2, 0, 0]"] ;
907 -> 909 ;
910 [label="CONCURRENT_FLIGHTS <= -0.413\ngini = 0.663\nsamples = 1221\nvalue = [444, 428, 349]"] ;
852 -> 910 ;
911 [label="CONCURRENT_FLIGHTS <= -1.309\ngini = 0.658\nsamples = 359\nvalue = [129, 93, 137]"] ;
910 -> 911 ;
912 [label="CONCURRENT_FLIGHTS <= -2.707\ngini = 0.642\nsamples = 192\nvalue = [87, 45, 60]"] ;
911 -> 912 ;
913 [label="gini = 0.0\nsamples = 4\nvalue = [0, 0, 4]"] ;
912 -> 913 ;
914 [label="TMAX <= 1.403\ngini = 0.64\nsamples = 188\nvalue = [87, 45, 56]"] ;
912 -> 914 ;
915 [label="PREVIOUS_AIRPORT_Jacksonville International <= 5.503\ngini = 0.635\nsamples = 182\nvalue = [87, 44, 51]"] ;
914 -> 915 ;
916 [label="gini = 0.626\nsamples = 171\nvalue = [84, 37, 50]"] ;
915 -> 916 ;
917 [label="gini = 0.512\nsamples = 11\nvalue = [3, 7, 1]"] ;
915 -> 917 ;
918 [label="DEP_TIME_BLK_1500-1559 <= 1.756\ngini = 0.278\nsamples = 6\nvalue = [0, 1, 5]"] ;
914 -> 918 ;
919 [label="gini = 0.0\nsamples = 5\nvalue = [0, 0, 5]"] ;
918 -> 919 ;
920 [label="gini = 0.0\nsamples = 1\nvalue = [0, 1, 0]"] ;
918 -> 920 ;
921 [label="AWND <= -0.569\ngini = 0.642\nsamples = 167\nvalue = [42, 48, 77]"] ;
911 -> 921 ;
922 [label="DEP_TIME_BLK_2000-2059 <= 1.674\ngini = 0.656\nsamples = 47\nvalue = [16, 19, 12]"] ;
921 -> 922 ;
923 [label="CONCURRENT_FLIGHTS <= -1.046\ngini = 0.639\nsamples = 44\nvalue = [16, 19, 9]"] ;
922 -> 923 ;
924 [label="gini = 0.219\nsamples = 8\nvalue = [1, 7, 0]"] ;
923 -> 924 ;
925 [label="gini = 0.653\nsamples = 36\nvalue = [15, 12, 9]"] ;
923 -> 925 ;
926 [label="gini = 0.0\nsamples = 3\nvalue = [0, 0, 3]"] ;
922 -> 926 ;
927 [label="DEP_TIME_BLK_1500-1559 <= 1.756\ngini = 0.601\nsamples = 120\nvalue = [26, 29, 65]"] ;
921 -> 927 ;
928 [label="AWND <= 0.243\ngini = 0.593\nsamples = 117\nvalue = [26, 26, 65]"] ;
927 -> 928 ;
929 [label="gini = 0.487\nsamples = 56\nvalue = [8, 10, 38]"] ;
928 -> 929 ;
930 [label="gini = 0.648\nsamples = 61\nvalue = [18, 16, 27]"] ;
928 -> 930 ;
931 [label="gini = 0.0\nsamples = 3\nvalue = [0, 3, 0]"] ;
927 -> 931 ;
932 [label="SEGMENT_NUMBER <= 1.903\ngini = 0.655\nsamples = 862\nvalue = [315, 335, 212]"] ;
910 -> 932 ;
933 [label="AIRPORT_FLIGHTS_MONTH <= -0.015\ngini = 0.655\nsamples = 829\nvalue = [295, 328, 206]"] ;
932 -> 933 ;
934 [label="PREVIOUS_AIRPORT_Newark Liberty International <= 4.312\ngini = 0.655\nsamples = 754\nvalue = [280, 290, 184]"] ;
933 -> 934 ;
935 [label="AIRPORT_FLIGHTS_MONTH <= -0.514\ngini = 0.655\nsamples = 747\nvalue = [274, 290, 183]"] ;
934 -> 935 ;
936 [label="gini = 0.65\nsamples = 620\nvalue = [238, 241, 141]"] ;
935 -> 936 ;
937 [label="gini = 0.661\nsamples = 127\nvalue = [36, 49, 42]"] ;
935 -> 937 ;
938 [label="DAY_OF_WEEK_4 <= 0.974\ngini = 0.245\nsamples = 7\nvalue = [6, 0, 1]"] ;
934 -> 938 ;
939 [label="gini = 0.0\nsamples = 6\nvalue = [6, 0, 0]"] ;
938 -> 939 ;
940 [label="gini = 0.0\nsamples = 1\nvalue = [0, 0, 1]"] ;
938 -> 940 ;
941 [label="DAY_OF_WEEK_7 <= 1.013\ngini = 0.617\nsamples = 75\nvalue = [15, 38, 22]"] ;
933 -> 941 ;
942 [label="AIRLINE_AIRPORT_FLIGHTS_MONTH <= -0.511\ngini = 0.604\nsamples = 69\nvalue = [15, 37, 17]"] ;
941 -> 942 ;
943 [label="gini = 0.466\nsamples = 27\nvalue = [8, 18, 1]"] ;
942 -> 943 ;
944 [label="gini = 0.622\nsamples = 42\nvalue = [7, 19, 16]"] ;
942 -> 944 ;
945 [label="CONCURRENT_FLIGHTS <= -0.307\ngini = 0.278\nsamples = 6\nvalue = [0, 1, 5]"] ;
941 -> 945 ;
946 [label="gini = 0.0\nsamples = 1\nvalue = [0, 1, 0]"] ;
945 -> 946 ;
947 [label="gini = 0.0\nsamples = 5\nvalue = [0, 0, 5]"] ;
945 -> 947 ;
948 [label="PREVIOUS_AIRPORT_Will Rogers World <= 6.461\ngini = 0.555\nsamples = 33\nvalue = [20, 7, 6]"] ;
932 -> 948 ;
949 [label="CONCURRENT_FLIGHTS <= -0.149\ngini = 0.406\nsamples = 24\nvalue = [18, 3, 3]"] ;
948 -> 949 ;
950 [label="gini = 0.0\nsamples = 2\nvalue = [0, 0, 2]"] ;
949 -> 950 ;
951 [label="PREVIOUS_AIRPORT_Des Moines Municipal <= 7.3\ngini = 0.31\nsamples = 22\nvalue = [18, 3, 1]"] ;
949 -> 951 ;
952 [label="gini = 0.254\nsamples = 21\nvalue = [18, 2, 1]"] ;
951 -> 952 ;
953 [label="gini = 0.0\nsamples = 1\nvalue = [0, 1, 0]"] ;
951 -> 953 ;
954 [label="TMAX <= 0.015\ngini = 0.642\nsamples = 9\nvalue = [2, 4, 3]"] ;
948 -> 954 ;
955 [label="gini = 0.0\nsamples = 2\nvalue = [2, 0, 0]"] ;
954 -> 955 ;
956 [label="AWND <= 1.149\ngini = 0.49\nsamples = 7\nvalue = [0, 4, 3]"] ;
954 -> 956 ;
957 [label="gini = 0.32\nsamples = 5\nvalue = [0, 4, 1]"] ;
956 -> 957 ;
958 [label="gini = 0.0\nsamples = 2\nvalue = [0, 0, 2]"] ;
956 -> 958 ;
959 [label="MONTH_7 <= 1.398\ngini = 0.635\nsamples = 15404\nvalue = [3808, 4226, 7370]"] ;
739 -> 959 ;
960 [label="MONTH_6 <= 1.353\ngini = 0.628\nsamples = 13634\nvalue = [3216, 3714, 6704]"] ;
959 -> 960 ;
961 [label="TMAX <= -1.575\ngini = 0.622\nsamples = 12249\nvalue = [2765, 3306, 6178]"] ;
960 -> 961 ;
962 [label="PRCP <= -0.341\ngini = 0.66\nsamples = 1395\nvalue = [435, 403, 557]"] ;
961 -> 962 ;
963 [label="SNWD <= 2.969\ngini = 0.653\nsamples = 1152\nvalue = [337, 321, 494]"] ;
962 -> 963 ;
964 [label="CONCURRENT_FLIGHTS <= -1.309\ngini = 0.651\nsamples = 1116\nvalue = [312, 317, 487]"] ;
963 -> 964 ;
965 [label="PREVIOUS_AIRPORT_Pittsburgh International <= 5.602\ngini = 0.555\nsamples = 124\nvalue = [21, 28, 75]"] ;
964 -> 965 ;
966 [label="gini = 0.543\nsamples = 121\nvalue = [21, 25, 75]"] ;
965 -> 966 ;
967 [label="gini = 0.0\nsamples = 3\nvalue = [0, 3, 0]"] ;
965 -> 967 ;
968 [label="AWND <= -0.506\ngini = 0.657\nsamples = 992\nvalue = [291, 289, 412]"] ;
964 -> 968 ;
969 [label="gini = 0.635\nsamples = 315\nvalue = [66, 104, 145]"] ;
968 -> 969 ;
970 [label="gini = 0.659\nsamples = 677\nvalue = [225, 185, 267]"] ;
968 -> 970 ;
971 [label="PREVIOUS_AIRPORT_Indianapolis Muni/Weir Cook <= 5.107\ngini = 0.468\nsamples = 36\nvalue = [25, 4, 7]"] ;
963 -> 971 ;
972 [label="SEGMENT_NUMBER <= 2.488\ngini = 0.442\nsamples = 35\nvalue = [25, 3, 7]"] ;
971 -> 972 ;
973 [label="gini = 0.413\nsamples = 34\nvalue = [25, 2, 7]"] ;
972 -> 973 ;
974 [label="gini = 0.0\nsamples = 1\nvalue = [0, 1, 0]"] ;
972 -> 974 ;
975 [label="gini = 0.0\nsamples = 1\nvalue = [0, 1, 0]"] ;
971 -> 975 ;
976 [label="SNWD <= 1.072\ngini = 0.656\nsamples = 243\nvalue = [98, 82, 63]"] ;
962 -> 976 ;
977 [label="AIRLINE_FLIGHTS_MONTH <= -0.525\ngini = 0.591\nsamples = 147\nvalue = [78, 48, 21]"] ;
976 -> 977 ;
978 [label="CONCURRENT_FLIGHTS <= -0.202\ngini = 0.557\nsamples = 135\nvalue = [78, 42, 15]"] ;
977 -> 978 ;
979 [label="gini = 0.604\nsamples = 88\nvalue = [44, 31, 13]"] ;
978 -> 979 ;
980 [label="gini = 0.42\nsamples = 47\nvalue = [34, 11, 2]"] ;
978 -> 980 ;
981 [label="AIRLINE_FLIGHTS_MONTH <= 0.537\ngini = 0.5\nsamples = 12\nvalue = [0, 6, 6]"] ;
977 -> 981 ;
982 [label="gini = 0.444\nsamples = 9\nvalue = [0, 3, 6]"] ;
981 -> 982 ;
983 [label="gini = 0.0\nsamples = 3\nvalue = [0, 3, 0]"] ;
981 -> 983 ;
984 [label="DISTANCE <= -1.183\ngini = 0.64\nsamples = 96\nvalue = [20, 34, 42]"] ;
976 -> 984 ;
985 [label="DISTANCE <= -1.264\ngini = 0.449\nsamples = 14\nvalue = [2, 10, 2]"] ;
984 -> 985 ;
986 [label="gini = 0.625\nsamples = 4\nvalue = [2, 1, 1]"] ;
985 -> 986 ;
987 [label="gini = 0.18\nsamples = 10\nvalue = [0, 9, 1]"] ;
985 -> 987 ;
988 [label="PREVIOUS_AIRPORT_Springfield-Branson National <= 7.395\ngini = 0.628\nsamples = 82\nvalue = [18, 24, 40]"] ;
984 -> 988 ;
989 [label="gini = 0.621\nsamples = 79\nvalue = [18, 21, 40]"] ;
988 -> 989 ;
990 [label="gini = 0.0\nsamples = 3\nvalue = [0, 3, 0]"] ;
988 -> 990 ;
991 [label="MONTH_8 <= 1.414\ngini = 0.614\nsamples = 10854\nvalue = [2330, 2903, 5621]"] ;
961 -> 991 ;
992 [label="NUMBER_OF_SEATS <= -0.133\ngini = 0.606\nsamples = 9164\nvalue = [1877, 2420, 4867]"] ;
991 -> 992 ;
993 [label="AIRLINE_FLIGHTS_MONTH <= -0.067\ngini = 0.601\nsamples = 7805\nvalue = [1618, 1960, 4227]"] ;
992 -> 993 ;
994 [label="DEP_TIME_BLK_1000-1059 <= 1.58\ngini = 0.609\nsamples = 5971\nvalue = [1327, 1491, 3153]"] ;
993 -> 994 ;
995 [label="gini = 0.607\nsamples = 5870\nvalue = [1282, 1469, 3119]"] ;
994 -> 995 ;
996 [label="gini = 0.641\nsamples = 101\nvalue = [45, 22, 34]"] ;
994 -> 996 ;
997 [label="DISTANCE <= -0.471\ngini = 0.566\nsamples = 1834\nvalue = [291, 469, 1074]"] ;
993 -> 997 ;
998 [label="gini = 0.55\nsamples = 1236\nvalue = [201, 282, 753]"] ;
997 -> 998 ;
999 [label="gini = 0.591\nsamples = 598\nvalue = [90, 187, 321]"] ;
997 -> 999 ;
1000 [label="AIRLINE_FLIGHTS_MONTH <= 0.69\ngini = 0.627\nsamples = 1359\nvalue = [259, 460, 640]"] ;
992 -> 1000 ;
1001 [label="DAY_OF_WEEK_5 <= 0.96\ngini = 0.599\nsamples = 624\nvalue = [114, 174, 336]"] ;
1000 -> 1001 ;
1002 [label="gini = 0.574\nsamples = 494\nvalue = [77, 134, 283]"] ;
1001 -> 1002 ;
1003 [label="gini = 0.658\nsamples = 130\nvalue = [37, 40, 53]"] ;
1001 -> 1003 ;
1004 [label="TMAX <= 0.646\ngini = 0.639\nsamples = 735\nvalue = [145, 286, 304]"] ;
1000 -> 1004 ;
1005 [label="gini = 0.614\nsamples = 531\nvalue = [78, 222, 231]"] ;
1004 -> 1005 ;
1006 [label="gini = 0.666\nsamples = 204\nvalue = [67, 64, 73]"] ;
1004 -> 1006 ;
1007 [label="NUMBER_OF_SEATS <= -1.684\ngini = 0.647\nsamples = 1690\nvalue = [453, 483, 754]"] ;
991 -> 1007 ;
1008 [label="DEP_TIME_BLK_1700-1759 <= 2.018\ngini = 0.597\nsamples = 287\nvalue = [77, 54, 156]"] ;
1007 -> 1008 ;
1009 [label="AWND <= -1.193\ngini = 0.575\nsamples = 247\nvalue = [58, 46, 143]"] ;
1008 -> 1009 ;
1010 [label="gini = 0.611\nsamples = 12\nvalue = [4, 6, 2]"] ;
1009 -> 1010 ;
1011 [label="gini = 0.558\nsamples = 235\nvalue = [54, 40, 141]"] ;
1009 -> 1011 ;
1012 [label="PREVIOUS_AIRPORT_Robert Gray AAF <= 12.431\ngini = 0.629\nsamples = 40\nvalue = [19, 8, 13]"] ;
1008 -> 1012 ;
1013 [label="gini = 0.599\nsamples = 35\nvalue = [19, 7, 9]"] ;
1012 -> 1013 ;
1014 [label="gini = 0.32\nsamples = 5\nvalue = [0, 1, 4]"] ;
1012 -> 1014 ;
1015 [label="AWND <= 0.648\ngini = 0.653\nsamples = 1403\nvalue = [376, 429, 598]"] ;
1007 -> 1015 ;
1016 [label="AWND <= -1.349\ngini = 0.656\nsamples = 1306\nvalue = [362, 402, 542]"] ;
1015 -> 1016 ;
1017 [label="gini = 0.507\nsamples = 44\nvalue = [8, 7, 29]"] ;
1016 -> 1017 ;
1018 [label="gini = 0.658\nsamples = 1262\nvalue = [354, 395, 513]"] ;
1016 -> 1018 ;
1019 [label="DISTANCE <= -0.872\ngini = 0.568\nsamples = 97\nvalue = [14, 27, 56]"] ;
1015 -> 1019 ;
1020 [label="gini = 0.47\nsamples = 49\nvalue = [6, 9, 34]"] ;
1019 -> 1020 ;
1021 [label="gini = 0.622\nsamples = 48\nvalue = [8, 18, 22]"] ;
1019 -> 1021 ;
1022 [label="PRCP <= -0.341\ngini = 0.663\nsamples = 1385\nvalue = [451, 408, 526]"] ;
960 -> 1022 ;
1023 [label="PRECIPITATION_DEPARTING_AIRPORT_AVG <= 0.658\ngini = 0.662\nsamples = 1345\nvalue = [418, 404, 523]"] ;
1022 -> 1023 ;
1024 [label="AWND <= -1.443\ngini = 0.651\nsamples = 829\nvalue = [213, 261, 355]"] ;
1023 -> 1024 ;
1025 [label="PLANE_AGE <= -1.268\ngini = 0.547\nsamples = 31\nvalue = [19, 7, 5]"] ;
1024 -> 1025 ;
1026 [label="CONCURRENT_FLIGHTS <= 0.668\ngini = 0.48\nsamples = 5\nvalue = [2, 3, 0]"] ;
1025 -> 1026 ;
1027 [label="gini = 0.444\nsamples = 3\nvalue = [2, 1, 0]"] ;
1026 -> 1027 ;
1028 [label="gini = 0.0\nsamples = 2\nvalue = [0, 2, 0]"] ;
1026 -> 1028 ;
1029 [label="DEP_TIME_BLK_1100-1159 <= 2.238\ngini = 0.512\nsamples = 26\nvalue = [17, 4, 5]"] ;
1025 -> 1029 ;
1030 [label="gini = 0.483\nsamples = 25\nvalue = [17, 3, 5]"] ;
1029 -> 1030 ;
1031 [label="gini = 0.0\nsamples = 1\nvalue = [0, 1, 0]"] ;
1029 -> 1031 ;
1032 [label="CONCURRENT_FLIGHTS <= 0.273\ngini = 0.647\nsamples = 798\nvalue = [194, 254, 350]"] ;
1024 -> 1032 ;
1033 [label="CONCURRENT_FLIGHTS <= -0.255\ngini = 0.599\nsamples = 269\nvalue = [53, 70, 146]"] ;
1032 -> 1033 ;
1034 [label="gini = 0.639\nsamples = 170\nvalue = [40, 51, 79]"] ;
1033 -> 1034 ;
1035 [label="gini = 0.488\nsamples = 99\nvalue = [13, 19, 67]"] ;
1033 -> 1035 ;
1036 [label="PLANE_AGE <= 0.427\ngini = 0.659\nsamples = 529\nvalue = [141, 184, 204]"] ;
1032 -> 1036 ;
1037 [label="gini = 0.653\nsamples = 266\nvalue = [71, 113, 82]"] ;
1036 -> 1037 ;
1038 [label="gini = 0.641\nsamples = 263\nvalue = [70, 71, 122]"] ;
1036 -> 1038 ;
1039 [label="AWND <= 0.805\ngini = 0.659\nsamples = 516\nvalue = [205, 143, 168]"] ;
1023 -> 1039 ;
1040 [label="SEGMENT_NUMBER <= 0.733\ngini = 0.663\nsamples = 465\nvalue = [170, 132, 163]"] ;
1039 -> 1040 ;
1041 [label="NUMBER_OF_SEATS <= -0.349\ngini = 0.657\nsamples = 219\nvalue = [59, 71, 89]"] ;
1040 -> 1041 ;
1042 [label="gini = 0.638\nsamples = 174\nvalue = [40, 53, 81]"] ;
1041 -> 1042 ;
1043 [label="gini = 0.63\nsamples = 45\nvalue = [19, 18, 8]"] ;
1041 -> 1043 ;
1044 [label="DAY_OF_WEEK_2 <= 1.025\ngini = 0.644\nsamples = 246\nvalue = [111, 61, 74]"] ;
1040 -> 1044 ;
1045 [label="gini = 0.659\nsamples = 197\nvalue = [78, 54, 65]"] ;
1044 -> 1045 ;
1046 [label="gini = 0.492\nsamples = 49\nvalue = [33, 7, 9]"] ;
1044 -> 1046 ;
1047 [label="DEP_TIME_BLK_1100-1159 <= 2.238\ngini = 0.473\nsamples = 51\nvalue = [35, 11, 5]"] ;
1039 -> 1047 ;
1048 [label="PREVIOUS_AIRPORT_Port Columbus International <= 5.177\ngini = 0.409\nsamples = 47\nvalue = [35, 8, 4]"] ;
1047 -> 1048 ;
1049 [label="gini = 0.366\nsamples = 45\nvalue = [35, 7, 3]"] ;
1048 -> 1049 ;
1050 [label="gini = 0.5\nsamples = 2\nvalue = [0, 1, 1]"] ;
1048 -> 1050 ;
1051 [label="DISTANCE <= -0.255\ngini = 0.375\nsamples = 4\nvalue = [0, 3, 1]"] ;
1047 -> 1051 ;
1052 [label="gini = 0.0\nsamples = 3\nvalue = [0, 3, 0]"] ;
1051 -> 1052 ;
1053 [label="gini = 0.0\nsamples = 1\nvalue = [0, 0, 1]"] ;
1051 -> 1053 ;
1054 [label="PREVIOUS_AIRPORT_Des Moines Municipal <= 7.3\ngini = 0.304\nsamples = 40\nvalue = [33, 4, 3]"] ;
1022 -> 1054 ;
1055 [label="PREVIOUS_AIRPORT_Ronald Reagan Washington National <= 3.914\ngini = 0.271\nsamples = 39\nvalue = [33, 4, 2]"] ;
1054 -> 1055 ;
1056 [label="PREVIOUS_AIRPORT_Bradley International <= 7.375\ngini = 0.234\nsamples = 38\nvalue = [33, 4, 1]"] ;
1055 -> 1056 ;
1057 [label="PREVIOUS_AIRPORT_Hector Field <= 12.07\ngini = 0.197\nsamples = 37\nvalue = [33, 3, 1]"] ;
1056 -> 1057 ;
1058 [label="gini = 0.156\nsamples = 36\nvalue = [33, 2, 1]"] ;
1057 -> 1058 ;
1059 [label="gini = 0.0\nsamples = 1\nvalue = [0, 1, 0]"] ;
1057 -> 1059 ;
1060 [label="gini = 0.0\nsamples = 1\nvalue = [0, 1, 0]"] ;
1056 -> 1060 ;
1061 [label="gini = 0.0\nsamples = 1\nvalue = [0, 0, 1]"] ;
1055 -> 1061 ;
1062 [label="gini = 0.0\nsamples = 1\nvalue = [0, 0, 1]"] ;
1054 -> 1062 ;
1063 [label="DEPARTING_AIRPORT_Chicago O'Hare International <= 0.379\ngini = 0.663\nsamples = 1770\nvalue = [592, 512, 666]"] ;
959 -> 1063 ;
1064 [label="DISTANCE <= -1.031\ngini = 0.652\nsamples = 1009\nvalue = [272, 301, 436]"] ;
1063 -> 1064 ;
1065 [label="PLANE_AGE <= 0.166\ngini = 0.6\nsamples = 331\nvalue = [91, 62, 178]"] ;
1064 -> 1065 ;
1066 [label="SEGMENT_NUMBER <= 0.148\ngini = 0.659\nsamples = 76\nvalue = [29, 20, 27]"] ;
1065 -> 1066 ;
1067 [label="DEP_TIME_BLK_1200-1259 <= 1.672\ngini = 0.219\nsamples = 8\nvalue = [7, 1, 0]"] ;
1066 -> 1067 ;
1068 [label="gini = 0.0\nsamples = 7\nvalue = [7, 0, 0]"] ;
1067 -> 1068 ;
1069 [label="gini = 0.0\nsamples = 1\nvalue = [0, 1, 0]"] ;
1067 -> 1069 ;
1070 [label="CONCURRENT_FLIGHTS <= -0.096\ngini = 0.66\nsamples = 68\nvalue = [22, 19, 27]"] ;
1066 -> 1070 ;
1071 [label="PREVIOUS_AIRPORT_Truax Field <= 7.844\ngini = 0.512\nsamples = 11\nvalue = [1, 7, 3]"] ;
1070 -> 1071 ;
1072 [label="gini = 0.42\nsamples = 10\nvalue = [0, 7, 3]"] ;
1071 -> 1072 ;
1073 [label="gini = 0.0\nsamples = 1\nvalue = [1, 0, 0]"] ;
1071 -> 1073 ;
1074 [label="PREVIOUS_AIRPORT_Northwest Arkansas Regional <= 6.427\ngini = 0.643\nsamples = 57\nvalue = [21, 12, 24]"] ;
1070 -> 1074 ;
1075 [label="gini = 0.642\nsamples = 54\nvalue = [18, 12, 24]"] ;
1074 -> 1075 ;
1076 [label="gini = 0.0\nsamples = 3\nvalue = [3, 0, 0]"] ;
1074 -> 1076 ;
1077 [label="DEP_TIME_BLK_1700-1759 <= 2.018\ngini = 0.563\nsamples = 255\nvalue = [62, 42, 151]"] ;
1065 -> 1077 ;
1078 [label="AWND <= 0.773\ngini = 0.544\nsamples = 233\nvalue = [51, 38, 144]"] ;
1077 -> 1078 ;
1079 [label="AWND <= -0.069\ngini = 0.564\nsamples = 197\nvalue = [50, 31, 116]"] ;
1078 -> 1079 ;
1080 [label="gini = 0.504\nsamples = 133\nvalue = [25, 20, 88]"] ;
1079 -> 1080 ;
1081 [label="gini = 0.626\nsamples = 64\nvalue = [25, 11, 28]"] ;
1079 -> 1081 ;
1082 [label="DEP_TIME_BLK_2000-2059 <= 1.674\ngini = 0.356\nsamples = 36\nvalue = [1, 7, 28]"] ;
1078 -> 1082 ;
1083 [label="gini = 0.299\nsamples = 34\nvalue = [1, 5, 28]"] ;
1082 -> 1083 ;
1084 [label="gini = 0.0\nsamples = 2\nvalue = [0, 2, 0]"] ;
1082 -> 1084 ;
1085 [label="CONCURRENT_FLIGHTS <= 0.378\ngini = 0.616\nsamples = 22\nvalue = [11, 4, 7]"] ;
1077 -> 1085 ;
1086 [label="DAY_OF_WEEK_2 <= 1.025\ngini = 0.576\nsamples = 19\nvalue = [11, 4, 4]"] ;
1085 -> 1086 ;
1087 [label="gini = 0.449\nsamples = 14\nvalue = [10, 2, 2]"] ;
1086 -> 1087 ;
1088 [label="gini = 0.64\nsamples = 5\nvalue = [1, 2, 2]"] ;
1086 -> 1088 ;
1089 [label="gini = 0.0\nsamples = 3\nvalue = [0, 0, 3]"] ;
1085 -> 1089 ;
1090 [label="NUMBER_OF_SEATS <= -0.212\ngini = 0.66\nsamples = 678\nvalue = [181, 239, 258]"] ;
1064 -> 1090 ;
1091 [label="TMAX <= 0.898\ngini = 0.657\nsamples = 495\nvalue = [138, 153, 204]"] ;
1090 -> 1091 ;
1092 [label="DAY_OF_WEEK_7 <= 1.013\ngini = 0.521\nsamples = 58\nvalue = [5, 17, 36]"] ;
1091 -> 1092 ;
1093 [label="PREVIOUS_AIRPORT_Newark Liberty International <= 4.312\ngini = 0.417\nsamples = 46\nvalue = [1, 12, 33]"] ;
1092 -> 1093 ;
